#include "emnist_model.h"

conv_layer_t conv_layer0; // Capa convolucional 1
conv_layer_t conv_layer1; // Capa convolucional 2
dense_layer_t dense_layer0; // Capa densa 1
dense_layer_t dense_layer1; // Capa densa 2


conv_layer_t init_conv_layer0(void){

  static filter_t filtros[8];
  
  static const float weights0[]={
    0.3761443495750427, -0.3307904899120331, -0.06761699169874191, 
    0.5375555157661438, 0.3771054148674011, -0.7257879376411438, 
    0.08369306474924088, 0.37956154346466064, 0.9821643233299255, 
  
  };
  static filter_t filter0 = {1, 3, weights0, -0.0025986002292484045};
  filtros[0]=filter0;
    
  static const float weights1[]={
    0.4132249653339386, 0.5231861472129822, 0.6864794492721558, 
    -0.03904150053858757, 0.13003283739089966, 0.4467065632343292, 
    0.4403080642223358, 0.6237179040908813, 0.26052168011665344, 
  
  };
  static filter_t filter1 = {1, 3, weights1, 0.0019440152682363987};
  filtros[1]=filter1;
    
  static const float weights2[]={
    0.17682430148124695, 0.018312327563762665, -0.25534453988075256, 
    -0.22827549278736115, 0.8167043328285217, -0.5787511467933655, 
    -0.5277913212776184, 0.7177013754844666, -0.15714868903160095, 
  
  };
  static filter_t filter2 = {1, 3, weights2, -0.12527503073215485};
  filtros[2]=filter2;
    
  static const float weights3[]={
    0.4730895161628723, -0.5192399024963379, 0.04077591747045517, 
    -1.0379887819290161, -0.21292655169963837, 1.101485013961792, 
    0.6006085276603699, 0.8166089653968811, -0.4692728519439697, 
  
  };
  static filter_t filter3 = {1, 3, weights3, -0.5426403284072876};
  filtros[3]=filter3;
    
  static const float weights4[]={
    -0.2841680943965912, 0.6889596581459045, -0.04854403808712959, 
    0.24644048511981964, 0.5555081367492676, -0.3376416265964508, 
    0.4726908802986145, -0.37379392981529236, -0.48151370882987976, 
  
  };
  static filter_t filter4 = {1, 3, weights4, -0.1815229207277298};
  filtros[4]=filter4;
    
  static const float weights5[]={
    -0.7139958739280701, -0.9577134251594543, -0.9181152582168579, 
    0.2323528230190277, 0.49642476439476013, -0.05861951410770416, 
    0.5876753926277161, 0.3281242549419403, 0.6673802733421326, 
  
  };
  static filter_t filter5 = {1, 3, weights5, 0.0005647921934723854};
  filtros[5]=filter5;
    
  static const float weights6[]={
    -0.1777891218662262, 0.23073536157608032, 0.059456102550029755, 
    -0.495882123708725, -0.32740911841392517, 1.0317680835723877, 
    -0.4852045178413391, -0.3686491549015045, 0.5369705557823181, 
  
  };
  static filter_t filter6 = {1, 3, weights6, -0.009740547277033329};
  filtros[6]=filter6;
    
  static const float weights7[]={
    0.11073685437440872, 0.4413568079471588, -0.14337261021137238, 
    -0.0036367776338011026, 0.45225048065185547, 1.2160202264785767, 
    -0.6265144348144531, -1.034571647644043, -0.5272754430770874, 
  
  };
  static filter_t filter7 = {1, 3, weights7, -0.003861434059217572};
  filtros[7]=filter7;
    
  conv_layer_t layer = {8,filtros};
  return layer;
}
  

conv_layer_t init_conv_layer1(void){

  static filter_t filtros[8];
  
  static const float weights0[]={
    -0.059658315032720566, -0.29032206535339355, 
    -0.250932514667511, -0.14695896208286285, 
  
    -0.253438264131546, 0.5086175799369812, 
    -0.4439075291156769, 0.7885362505912781, 
  
    -0.05117736756801605, 0.4337823688983917, 
    -0.6521983742713928, 0.40655481815338135, 
  
    -0.48629990220069885, -0.008771385997533798, 
    -0.06513102352619171, 0.18028506636619568, 
  
    -0.5316475629806519, -0.26448628306388855, 
    -0.5291922688484192, 0.2788006365299225, 
  
    -0.1695745438337326, -0.060329388827085495, 
    0.3005217909812927, -0.1540975421667099, 
  
    -0.37522247433662415, 0.923697829246521, 
    -0.10632513463497162, 0.35270047187805176, 
  
    0.2727747857570648, -0.28463467955589294, 
    0.005019445437937975, -0.4536575376987457, 
  
  };
  static filter_t filter0 = {8, 2, weights0, 0.25632980465888977};
  filtros[0]=filter0;
    
  static const float weights1[]={
    0.32474324107170105, 0.43209508061408997, 
    0.35888633131980896, 0.5499005913734436, 
  
    -0.15334245562553406, -0.08622238039970398, 
    -0.09201987832784653, 0.030521096661686897, 
  
    -0.15666638314723969, 0.38984620571136475, 
    0.3827008008956909, 0.5246646404266357, 
  
    -0.01438011322170496, -0.4109322428703308, 
    -0.2582739591598511, -0.6524975895881653, 
  
    -0.2014746069908142, -0.39301031827926636, 
    -0.5157281160354614, -0.9545555114746094, 
  
    0.5099749565124512, 0.6175243854522705, 
    0.41853705048561096, 0.25734931230545044, 
  
    -0.1997912973165512, -0.47912347316741943, 
    -0.05977765843272209, 0.09229732304811478, 
  
    0.19135437905788422, 0.7927150726318359, 
    0.46761056780815125, 0.6935277581214905, 
  
  };
  static filter_t filter1 = {8, 2, weights1, 0.40763506293296814};
  filtros[1]=filter1;
    
  static const float weights2[]={
    -0.12223384529352188, 0.17540313303470612, 
    0.2976270318031311, 0.20673105120658875, 
  
    -0.1345963478088379, -0.3330460786819458, 
    0.4139116108417511, 0.3922228515148163, 
  
    -0.1694488674402237, 0.3058091104030609, 
    -0.0018990009557455778, -0.08534073829650879, 
  
    0.05037335678935051, -0.42510291934013367, 
    0.748583972454071, 0.7552054524421692, 
  
    -0.028512954711914062, -0.3781608045101166, 
    0.4412817656993866, 0.3630441725254059, 
  
    0.44257327914237976, 0.02908596768975258, 
    0.81615149974823, 0.35412195324897766, 
  
    -0.3639771342277527, -0.24044406414031982, 
    -0.1133003681898117, -0.0610133595764637, 
  
    0.04178980737924576, 0.46988266706466675, 
    -0.33994755148887634, -0.27028271555900574, 
  
  };
  static filter_t filter2 = {8, 2, weights2, 0.25394314527511597};
  filtros[2]=filter2;
    
  static const float weights3[]={
    0.008714661002159119, 0.408027708530426, 
    0.5900001525878906, 0.6414229869842529, 
  
    0.15126873552799225, 0.31576812267303467, 
    -0.22463232278823853, -0.18155528604984283, 
  
    0.41714659333229065, 0.746230959892273, 
    0.40866753458976746, 0.316322922706604, 
  
    0.4324653148651123, 0.4465774893760681, 
    -0.11363908648490906, 0.7834668755531311, 
  
    0.0055142296478152275, -0.02900869958102703, 
    -0.21582689881324768, -0.23791268467903137, 
  
    -0.21855756640434265, -0.4750193655490875, 
    -0.30990248918533325, 0.01609763503074646, 
  
    0.1396823525428772, 1.0239638090133667, 
    -0.22947874665260315, 0.7498995661735535, 
  
    0.1314787119626999, -0.10722877085208893, 
    0.09931680560112, 0.36579450964927673, 
  
  };
  static filter_t filter3 = {8, 2, weights3, -0.7584324479103088};
  filtros[3]=filter3;
    
  static const float weights4[]={
    0.12046690285205841, 0.2444487363100052, 
    -0.33723047375679016, -0.15115109086036682, 
  
    0.05893009901046753, 0.2885494530200958, 
    -0.06929321587085724, 0.2014407217502594, 
  
    0.40788429975509644, -0.4901607930660248, 
    -0.9389820694923401, -0.7073072195053101, 
  
    -0.02467404678463936, 0.048619989305734634, 
    0.22250664234161377, -0.11471859365701675, 
  
    -0.46385228633880615, 0.4491311311721802, 
    -0.4091668128967285, 0.3527008891105652, 
  
    -0.1398359090089798, 0.4463299810886383, 
    0.6147487163543701, -0.2613389790058136, 
  
    0.6684197187423706, -0.32675766944885254, 
    -0.0347309373319149, -0.7536904215812683, 
  
    -0.09794282168149948, -0.3016618490219116, 
    0.5482170581817627, 0.8686774373054504, 
  
  };
  static filter_t filter4 = {8, 2, weights4, 0.30241328477859497};
  filtros[4]=filter4;
    
  static const float weights5[]={
    -0.04593343660235405, 0.00296071358025074, 
    -0.3836849629878998, 0.0758645310997963, 
  
    0.08004776388406754, -0.022708861157298088, 
    0.4329966902732849, 0.28846606612205505, 
  
    0.0590338371694088, 0.43461179733276367, 
    0.7721012830734253, 0.8402520418167114, 
  
    -0.09676049649715424, -0.9494931101799011, 
    0.5427520871162415, -0.7719117403030396, 
  
    0.07092306762933731, -0.4064631462097168, 
    0.664577841758728, 0.06551647186279297, 
  
    0.16666653752326965, -0.023799698799848557, 
    -0.015355846844613552, -0.6893779635429382, 
  
    0.1183239296078682, 0.27125880122184753, 
    0.754274308681488, 0.49659645557403564, 
  
    -0.13111117482185364, -0.12737533450126648, 
    -0.29385054111480713, -0.015456000342965126, 
  
  };
  static filter_t filter5 = {8, 2, weights5, 0.10721395164728165};
  filtros[5]=filter5;
    
  static const float weights6[]={
    0.477455198764801, -0.25969263911247253, 
    0.35240694880485535, 0.5654940009117126, 
  
    0.6046213507652283, -0.5770782232284546, 
    0.23863452672958374, -0.2139657586812973, 
  
    0.39698466658592224, 0.6593633890151978, 
    0.2134014368057251, -0.2726341485977173, 
  
    -0.4476565718650818, -0.32817161083221436, 
    -0.28786322474479675, 0.3171555697917938, 
  
    -0.0794859305024147, 0.26095035672187805, 
    -0.2663550078868866, -0.02162262238562107, 
  
    -0.2178216129541397, -0.23059716820716858, 
    -0.10917511582374573, 0.5951991677284241, 
  
    0.6522912383079529, 0.2727406620979309, 
    0.5238521695137024, 0.19385020434856415, 
  
    -0.34585511684417725, -1.5258731842041016, 
    0.07119124382734299, -0.6832960844039917, 
  
  };
  static filter_t filter6 = {8, 2, weights6, 0.17011800408363342};
  filtros[6]=filter6;
    
  static const float weights7[]={
    0.36874496936798096, 0.23514199256896973, 
    -0.3356150686740875, -0.488485723733902, 
  
    0.22805063426494598, 0.5709418654441833, 
    -0.7931279540061951, -0.07188612222671509, 
  
    0.7245116233825684, 0.7063344120979309, 
    -0.11641480028629303, -0.36842477321624756, 
  
    0.16402548551559448, 0.17388230562210083, 
    0.2707022726535797, 0.92582768201828, 
  
    0.17142798006534576, -0.012277057394385338, 
    -0.049857307225465775, 0.3992885649204254, 
  
    0.05310767516493797, -0.14591680467128754, 
    0.44822800159454346, -0.20966891944408417, 
  
    0.15238605439662933, 0.2508259415626526, 
    0.05066308751702309, 0.2866402864456177, 
  
    0.5064630508422852, 0.273837149143219, 
    0.1209782063961029, -0.4877571165561676, 
  
  };
  static filter_t filter7 = {8, 2, weights7, -0.01705523580312729};
  filtros[7]=filter7;
    
  conv_layer_t layer = {8,filtros};
  return layer;
}
  
dense_layer_t init_dense_layer0(){
  // Cantidad de variables weights = numero de neuronas
  // Cantidad de pesos por weights = numero de entradas

  static neuron_t neuronas[40];
  
  static const float weights0[]={
    0.06218915805220604, -0.13555097579956055, -0.1977706104516983, -0.06672399491071701, -0.3075943887233734, 0.1255132555961609, 0.4852394759654999, 0.1658211648464203, -0.041628021746873856, -0.04101789742708206, -0.07752341777086258, -0.2765122056007385, -0.05692145228385925, 0.019859913736581802, 0.38425183296203613, -0.09745532274246216, 0.055859170854091644, 0.1915542185306549, -0.6616430878639221, -0.5820887088775635, 0.0335080586373806, -0.19547657668590546, -0.26738038659095764, 0.19821631908416748, -0.16637347638607025, -0.21969039738178253, 0.02882763370871544, -0.5374717116355896, -0.5033790469169617, -0.0564352348446846, -0.356380432844162, 0.6390153169631958, -0.6454804539680481, 0.31973913311958313, -0.006763831712305546, -0.24257683753967285, -0.4425933361053467, 0.07017377018928528, -0.20563721656799316, 0.35905247926712036, -0.40369853377342224, 0.2352701723575592, 0.10301128774881363, 0.12019762396812439, 0.12227752804756165, 0.6227176189422607, 0.09207270294427872, 0.4231503903865814, -0.6617348194122314, 0.5040597915649414, 0.7893152832984924, 0.010837229900062084, -0.22611558437347412, -0.12207894772291183, -0.15126784145832062, 0.46105310320854187, -0.07012587040662766, -0.05980999395251274, 0.2579541504383087, -0.009779660031199455, 0.09643257409334183, 0.5756223797798157, 0.2976447343826294, -0.32259252667427063, 0.9779726266860962, -0.0818929448723793, 0.25399261713027954, -0.21754612028598785, 0.6403002738952637, 0.3350274860858917, 0.2985527217388153, 0.06196647137403488,
  };
  static neuron_t neuron0 = {weights0, 0.16210150718688965};
  neuronas[0]=neuron0;
    
  static const float weights1[]={
    -0.10997037589550018, 0.1451272964477539, -0.01340279821306467, -0.01517877820879221, 0.06101391837000847, 0.028842739760875702, 0.16478663682937622, -0.1610867977142334, -0.4308620095252991, 0.13385143876075745, 0.04747016355395317, -0.14625655114650726, 0.08757950365543365, 0.2432306557893753, 0.12834186851978302, 0.20831498503684998, -0.24848805367946625, 0.0869128480553627, 0.06554680317640305, -0.17075029015541077, 0.20718932151794434, 0.026500090956687927, -0.3989948034286499, -0.015904022380709648, 0.17295803129673004, 0.2306317538022995, 0.06497183442115784, 0.45035141706466675, 0.1401844024658203, -0.16052693128585815, 0.5623946785926819, -0.11325603723526001, 0.19141116738319397, -0.026907242834568024, 0.2139490693807602, 0.38373541831970215, 0.24877551198005676, 0.13075487315654755, 0.2905382215976715, -0.14407344162464142, 0.3323388695716858, 0.366476833820343, 0.18445345759391785, 0.10191774368286133, -0.15052101016044617, -0.25905370712280273, 3.2079769880510867e-06, 0.01336643099784851, 0.06066117063164711, -0.18384434282779694, 0.6397783756256104, 0.04651206359267235, 0.372891902923584, 0.8337058424949646, 0.45968011021614075, -0.07823788374662399, 1.0916152000427246, -1.0912346839904785, 0.20727404952049255, -0.7526411414146423, -0.23169532418251038, 0.23828637599945068, 0.32438546419143677, -0.24854648113250732, -1.363518476486206, -0.6400607824325562, -1.1691107749938965, -0.9242219924926758, -0.41699960827827454, -0.6674522757530212, -0.36287325620651245, 0.36555442214012146,
  };
  static neuron_t neuron1 = {weights1, -0.41145631670951843};
  neuronas[1]=neuron1;
    
  static const float weights2[]={
    -0.020657150074839592, -0.7211328148841858, 0.2433849424123764, -0.19683709740638733, -0.20572461187839508, 0.276012659072876, -0.04627159982919693, 0.0993138998746872, -0.0807221382856369, -0.23087716102600098, 0.12793856859207153, -0.23660963773727417, 0.05771075189113617, -0.01917274482548237, 0.5226824879646301, -0.3128577768802643, 0.10525048524141312, -0.6630280613899231, 0.51816725730896, 0.04727611690759659, -0.11402997374534607, 0.5522127151489258, 0.5481923222541809, -0.06730189174413681, -0.1312941014766693, -0.23807114362716675, -0.3258991837501526, 0.12004714459180832, -0.3808683156967163, 0.12861010432243347, 0.1462380737066269, -0.44438785314559937, -0.22140197455883026, 0.2755952775478363, -0.08199994266033173, -0.15504467487335205, 0.26610177755355835, 0.2077515572309494, -0.22057312726974487, 0.13786378502845764, 0.6439216136932373, 0.07425867766141891, 0.18453925848007202, -0.2114258110523224, 0.2095816731452942, 0.013256289064884186, -0.18738560378551483, 0.28311508893966675, -0.30461370944976807, 0.45653384923934937, -0.6439462304115295, -0.024979982525110245, 0.2984101474285126, -0.3260490596294403, 1.1720993518829346, 0.032233525067567825, -0.37316620349884033, -0.3232184052467346, -0.35589471459388733, -0.2584872841835022, 0.15413548052310944, 0.500397264957428, -0.1300928294658661, 0.13524533808231354, 0.0289817675948143, 0.3759932816028595, -0.15352322161197662, -0.17352300882339478, 0.16782140731811523, 0.23296551406383514, 0.33962973952293396, -0.1207689419388771,
  };
  static neuron_t neuron2 = {weights2, 0.6041347980499268};
  neuronas[2]=neuron2;
    
  static const float weights3[]={
    0.05752433463931084, 0.45488297939300537, 0.25411128997802734, -0.20778495073318481, -0.10107060521841049, 0.19626028835773468, 0.3883042335510254, -0.4492202401161194, 0.2690734267234802, 0.1321389526128769, 0.27503859996795654, 0.08243001252412796, 0.37038877606391907, 0.35223615169525146, 0.08977175503969193, -0.2867937386035919, 0.494320273399353, 0.5904966592788696, 0.1111309826374054, -0.22302860021591187, 0.050764117389917374, -0.2381402999162674, -0.2320820540189743, -0.18220213055610657, 0.11048519611358643, 0.2027454823255539, 0.03727797046303749, 0.14983080327510834, 0.10928819328546524, -0.31602388620376587, -0.05147770419716835, -0.12467937171459198, -0.05480477586388588, 0.005205153953284025, -0.5171066522598267, 0.43612468242645264, -0.028632698580622673, -0.3113519549369812, -0.05671237036585808, -0.0782826617360115, -0.3237735629081726, 0.13435718417167664, -0.68727046251297, 0.055491186678409576, -0.1570596843957901, 0.2034246176481247, 0.2376813143491745, 0.3251687288284302, -0.03126615658402443, -0.4967454969882965, 0.2949695289134979, 0.18960878252983093, 0.24125626683235168, 0.05522386357188225, -0.4571075737476349, 0.06585181504487991, -0.3958751857280731, -0.06642791628837585, -0.26371610164642334, -0.21196836233139038, -0.19991806149482727, -0.3921012282371521, 0.13862183690071106, 0.13458062708377838, -0.1037735715508461, 0.5022799372673035, -0.06546884775161743, 0.17742621898651123, 0.226814404129982, 0.06789038330316544, -0.33361220359802246, 0.11680347472429276,
  };
  static neuron_t neuron3 = {weights3, 0.525020956993103};
  neuronas[3]=neuron3;
    
  static const float weights4[]={
    0.1251806765794754, -0.18654268980026245, -0.1386173814535141, -0.20970435440540314, -0.18098798394203186, -0.014986906200647354, -0.22477146983146667, 0.060423169285058975, -0.015196983702480793, 0.07203814387321472, 0.03603708744049072, -0.13726688921451569, 0.031370218843221664, 0.027991479262709618, -0.18905892968177795, -0.018808860331773758, -0.03579111769795418, 0.07603269070386887, 0.0052323415875434875, -0.08238458633422852, -0.11271382868289948, 0.18940597772598267, 0.1397019624710083, 0.043242402374744415, -0.135925754904747, -0.03499928116798401, 0.015352996997535229, 0.03929394856095314, -0.18739695847034454, 0.11730176210403442, 0.14040495455265045, 0.06307074427604675, -0.11106307804584503, 0.09486855566501617, 0.05959324166178703, 0.04105857387185097, -0.03980826586484909, -0.044325653463602066, 0.11659317463636398, -0.18440870940685272, -0.13900478184223175, -0.1672375500202179, 0.03526720032095909, 0.11361385881900787, 0.15519466996192932, -0.22025319933891296, -0.15105625987052917, -0.1568165123462677, -0.15040601789951324, 0.1910375952720642, -0.031331438571214676, -0.2305741310119629, 0.09134696424007416, -0.04010997340083122, -0.10200416296720505, -0.16585281491279602, 0.158152237534523, -0.24950899183750153, -0.14653383195400238, -0.11301779001951218, -0.04167776182293892, 0.04044770449399948, 0.21264731884002686, 0.10762919485569, 0.05201135203242302, -0.21293257176876068, -0.23295724391937256, -0.11540485918521881, -0.14361044764518738, -0.20079556107521057, 0.10728995501995087, -0.056106094270944595,
  };
  static neuron_t neuron4 = {weights4, -0.008829420432448387};
  neuronas[4]=neuron4;
    
  static const float weights5[]={
    -0.19859866797924042, -0.4579106569290161, 0.11295580863952637, 0.38141170144081116, -0.14209525287151337, -0.08180844038724899, -0.40290042757987976, -0.4368199408054352, -0.6264789700508118, 0.08681565523147583, -0.06891866028308868, 0.2604762613773346, -0.10353952646255493, -0.4051239788532257, -0.6484416723251343, 0.1981256753206253, -0.18252256512641907, 0.014688200317323208, 0.1383739411830902, 0.49460136890411377, 0.24939849972724915, 0.5971742868423462, -0.015551161020994186, 0.16949665546417236, 0.07144665718078613, 0.006480687763541937, -0.16417047381401062, 0.10319576412439346, -0.11746885627508163, -0.09557421505451202, 0.14517875015735626, 0.27214041352272034, -0.3229542076587677, 0.21638765931129456, -0.2713785469532013, 0.024255437776446342, 0.2119542509317398, -0.4327801465988159, -0.40626096725463867, -0.0636029914021492, 0.015290685929358006, -0.2889222204685211, 0.21906886994838715, -0.30573418736457825, 0.7238652110099792, -0.1839240938425064, 0.27789047360420227, -0.0007531449664384127, -0.24095799028873444, 0.16187943518161774, -0.02488173171877861, 0.27101588249206543, -0.15250374376773834, 0.6301354169845581, -0.2701403796672821, -0.4259432852268219, -0.7659561634063721, 0.04906843602657318, 0.005719367414712906, 0.32134392857551575, -0.10958468914031982, 0.4530276358127594, -0.5769651532173157, 0.48988255858421326, 0.5989607572555542, 0.8186705708503723, 0.10433831810951233, -0.14574334025382996, -0.26432499289512634, 0.7399384379386902, 0.1516372412443161, 0.22721104323863983,
  };
  static neuron_t neuron5 = {weights5, -0.3128647804260254};
  neuronas[5]=neuron5;
    
  static const float weights6[]={
    -0.14129164814949036, 0.3621404469013214, 0.01071979384869337, -0.23399126529693604, -0.3493562936782837, -0.28857526183128357, 0.08925139158964157, 0.6543846726417542, 0.6772806644439697, -0.058833085000514984, 0.30152204632759094, -0.09993528574705124, -0.06283819675445557, -0.0032054726034402847, -0.0069772955030202866, 0.0521944984793663, 0.38240042328834534, 0.15439777076244354, 0.08162318915128708, -0.4414254426956177, -0.26183444261550903, -0.12418028712272644, 0.5224190950393677, -0.014251291751861572, 0.26341769099235535, -0.7337645292282104, 0.03491268306970596, -0.012207148596644402, -0.08077385276556015, 0.23168350756168365, -0.07329316437244415, -0.3807374835014343, -0.37837448716163635, -0.2619801461696625, 0.2063591331243515, 0.15211103856563568, -0.16814164817333221, -0.09479039907455444, -0.23315271735191345, -0.1317366063594818, 0.2660495340824127, -0.08874507993459702, 0.5841270685195923, -0.12138717621564865, -0.007010414730757475, 0.3020654618740082, -0.13994716107845306, -0.11343459784984589, 0.1977170705795288, 0.015488196164369583, -0.08015691488981247, 0.3539845645427704, -0.15340366959571838, 0.025466028600931168, -0.160061314702034, -0.7042523622512817, -0.5093390941619873, -0.29935458302497864, 0.2108183056116104, 0.06804605573415756, -0.36456817388534546, -0.016830414533615112, -0.33775168657302856, 0.1542290449142456, -0.07989378273487091, 0.15829776227474213, 0.7797387838363647, 0.4611341953277588, -0.17303477227687836, 0.012009636498987675, 0.257837176322937, -0.43366125226020813,
  };
  static neuron_t neuron6 = {weights6, 0.2709829807281494};
  neuronas[6]=neuron6;
    
  static const float weights7[]={
    0.37276527285575867, 0.04044868052005768, -0.15467117726802826, 0.22352154552936554, 0.10989858210086823, -0.1917293667793274, 0.23558977246284485, -0.7476863861083984, 0.1523333638906479, 0.5840534567832947, -0.1938612014055252, -0.3867166340351105, -0.14690177142620087, -0.09175720810890198, 0.020905587822198868, -0.07441376149654388, -0.20799782872200012, 0.12721534073352814, -0.12769682705402374, 0.08893334120512009, -0.020343931391835213, 0.5458987951278687, 0.5756372809410095, -0.27783700823783875, 0.24994713068008423, 0.07375127822160721, 0.5157394409179688, 0.0005911979824304581, 0.17986661195755005, -0.325445294380188, 0.0021332278847694397, 0.2277115136384964, 0.46239030361175537, 0.352064847946167, 0.1771487444639206, -0.24079270660877228, 0.2614736258983612, -0.28397539258003235, 0.055401451885700226, -0.055153775960206985, 0.4479879140853882, -0.23306840658187866, 0.2167639285326004, 0.01024028193205595, 0.06461954861879349, 0.4910919666290283, 0.04417891800403595, -0.061906199902296066, 0.40201786160469055, -0.7261077165603638, 0.7515165209770203, 0.37289655208587646, -0.24501797556877136, 0.19158343970775604, 0.07098719477653503, -0.7247633934020996, -0.12130818516016006, -0.241423100233078, 0.23984503746032715, 0.11267424374818802, 0.03592514991760254, -0.33702346682548523, -0.07085671275854111, 0.020625213161110878, 0.6140711903572083, 0.09430501610040665, -0.08618238568305969, -0.16021057963371277, -0.04994381219148636, -0.35222479701042175, 0.3165081739425659, -0.484113872051239,
  };
  static neuron_t neuron7 = {weights7, -0.1417829990386963};
  neuronas[7]=neuron7;
    
  static const float weights8[]={
    -0.04861294850707054, -0.6170560121536255, 0.36281564831733704, 0.30131062865257263, -0.2957441508769989, -0.1300371140241623, -0.002597874030470848, -0.6189666390419006, 0.008142458274960518, -0.3826787769794464, -0.08495990931987762, 0.055405985563993454, 0.054461635649204254, -0.09281082451343536, 0.17421984672546387, -0.2569083273410797, 0.6358721852302551, -0.3070155382156372, -0.08010461926460266, 0.5905889272689819, -0.14716042578220367, 0.31311091780662537, 0.018272431567311287, -0.37518632411956787, -0.1767425686120987, 0.09843981266021729, 0.14860975742340088, 0.27943307161331177, 0.45744234323501587, 0.060082025825977325, -0.27298352122306824, 0.24015949666500092, -0.30720263719558716, 0.19902384281158447, 0.3484875559806824, 0.03519565612077713, 0.020577065646648407, -0.043348148465156555, 0.07460804283618927, -0.06439436972141266, -0.5825037360191345, -0.027051614597439766, -0.048440124839544296, 0.15095216035842896, 0.10147979855537415, 0.3387347161769867, -0.19568003714084625, 0.19134947657585144, -0.148637592792511, 0.4423504173755646, -0.5086749792098999, 0.08763617277145386, -0.6017773151397705, 0.027458222582936287, 0.27733656764030457, 0.15565751492977142, -0.3481329083442688, 0.3377184569835663, 0.5842698812484741, 0.4845455288887024, -0.05789921060204506, -0.0672513023018837, -0.1746879518032074, -0.3430977463722229, -0.23010623455047607, -0.15912088751792908, 0.09121090918779373, 0.1946505606174469, -0.34908750653266907, 0.17614828050136566, 0.2513628900051117, -0.16264045238494873,
  };
  static neuron_t neuron8 = {weights8, -0.08365394175052643};
  neuronas[8]=neuron8;
    
  static const float weights9[]={
    -0.05189940705895424, 0.17582812905311584, -0.10145362466573715, 0.6217527985572815, -0.09555404633283615, 0.36163797974586487, 0.7375430464744568, 0.3726167678833008, 0.23465654253959656, 0.06321331858634949, -0.03119637258350849, 0.5426044464111328, 0.24425436556339264, 0.1362447589635849, 0.39512887597084045, -0.04891280084848404, 0.41248705983161926, -0.4017067849636078, 0.00025213370099663734, 0.7058616876602173, 0.5610842704772949, -0.05042659491300583, -0.0651547834277153, 0.2271035760641098, 0.24906042218208313, -0.20555002987384796, -0.3037346303462982, -0.031232785433530807, 0.24343359470367432, -0.27102354168891907, 0.5115877389907837, -0.17500421404838562, 0.05151613429188728, -0.13506072759628296, 0.039873797446489334, 0.04974721372127533, -0.12256666272878647, -0.1915733367204666, 0.32111069560050964, 0.12645456194877625, 0.10540852695703506, -0.30647382140159607, -0.2034967839717865, 0.32592740654945374, 0.29004907608032227, 0.17708654701709747, 0.33682918548583984, 0.06741857528686523, -0.10836144536733627, -0.34288647770881653, 0.40465497970581055, -0.08721240609884262, -0.060273367911577225, 0.38395780324935913, -0.8672957420349121, 0.6706697344779968, 0.07782845199108124, 0.24385111033916473, -0.4517286419868469, -0.09779075533151627, -0.382709801197052, 0.44150206446647644, -0.04748675599694252, 0.5180960297584534, 0.4686427116394043, -0.1236039325594902, -0.36299368739128113, -0.5375911593437195, -0.26587140560150146, 0.40046048164367676, -0.08763841539621353, 0.4116365611553192,
  };
  static neuron_t neuron9 = {weights9, -0.7219873070716858};
  neuronas[9]=neuron9;
    
  static const float weights10[]={
    -0.04617556184530258, -0.10106603801250458, 0.042086947709321976, -0.24450987577438354, -0.25404104590415955, -0.19565458595752716, 0.02717353031039238, 0.12789978086948395, 0.11105075478553772, -0.2141832560300827, 0.1688443422317505, -0.2405623197555542, -0.27521607279777527, -0.2152237445116043, 0.17487405240535736, 0.07731356471776962, -0.13440045714378357, 0.00793493166565895, 0.023610541597008705, 0.12911313772201538, 0.022457625716924667, -0.16164547204971313, -0.053659528493881226, -0.008709542453289032, -0.19497157633304596, 0.1875031590461731, 0.0597635842859745, 0.08966650813817978, 0.09807953238487244, -0.006155785638839006, -0.06184021010994911, -0.2139863669872284, -0.16867007315158844, 0.09090911597013474, -0.07880362123250961, -0.14669130742549896, -0.07344099134206772, 0.15355850756168365, 0.1401033103466034, 0.06970728188753128, -0.15171997249126434, -0.2072424590587616, -0.2287515550851822, -0.11750734597444534, -0.06568119674921036, 0.1307641565799713, 0.02380734123289585, -0.0627717524766922, 0.11188697069883347, -0.2457183301448822, -0.2223292589187622, -0.09394608438014984, -0.0330389142036438, -0.017154665663838387, -0.016124336048960686, -0.19981685280799866, -0.09494401514530182, -0.05413038656115532, -0.12069736421108246, 0.08490972965955734, 0.18952780961990356, 0.1226741299033165, 0.20685037970542908, 0.09459427744150162, 0.15276333689689636, -0.06642185151576996, -0.008189044892787933, 0.0009876968106254935, -0.23385122418403625, 0.09631343930959702, -0.20217521488666534, -0.1665741354227066,
  };
  static neuron_t neuron10 = {weights10, -0.04199144244194031};
  neuronas[10]=neuron10;
    
  static const float weights11[]={
    -0.05950802192091942, -0.3664418160915375, 0.17335335910320282, 0.5854853987693787, -0.188551127910614, 0.7380862832069397, 0.3263210952281952, 0.2513098418712616, -0.1309402734041214, 0.007089884486049414, 0.08003830164670944, 0.33197885751724243, -0.11545506864786148, 0.02163822203874588, -0.11878987401723862, -0.046000316739082336, 0.06746918708086014, 0.18719995021820068, 0.40362241864204407, -0.3956719636917114, -0.1806909739971161, -0.14938116073608398, -0.2744354009628296, -0.3413940370082855, 0.196217879652977, -0.032367512583732605, -0.018945783376693726, 0.15799389779567719, 0.14107248187065125, 0.4066605269908905, 0.7774458527565002, -0.10733561962842941, -0.6484578251838684, -0.01103335339576006, 0.2703694999217987, -0.301631361246109, -0.1574646234512329, 0.06697146594524384, -0.4013504981994629, -0.00854862667620182, -0.5207817554473877, -0.20448173582553864, -0.050188254565000534, -0.5186617970466614, 0.11090726405382156, -0.14709211885929108, -0.28624653816223145, 0.140463724732399, 0.3666656017303467, -0.23299969732761383, 0.4479246437549591, 0.1151973083615303, 0.3631151020526886, 0.5685344934463501, 0.43193382024765015, -0.29986101388931274, -0.9010908007621765, 0.31371769309043884, -0.056595247238874435, -0.002872070763260126, -0.5729438066482544, -0.6377620697021484, -0.19452506303787231, 0.3630889654159546, 0.23275431990623474, 0.05978748947381973, -0.17302235960960388, -0.691268801689148, 0.16811273992061615, 0.0758478194475174, -0.1645585000514984, 0.36087536811828613,
  };
  static neuron_t neuron11 = {weights11, 0.2965939939022064};
  neuronas[11]=neuron11;
    
  static const float weights12[]={
    -0.19214756786823273, 0.10396100580692291, 0.020871369168162346, 0.05385775491595268, -0.15015184879302979, -0.2761472463607788, -0.012739078141748905, -0.02464655041694641, 0.2230011522769928, 0.049313947558403015, -0.12898537516593933, 0.14838486909866333, -0.23504333198070526, 0.06021508201956749, 0.2544073164463043, -0.741813600063324, -0.5812922716140747, 0.49178391695022583, -0.013837575912475586, -0.22427451610565186, -0.4109344184398651, -0.2887837588787079, -0.4311427175998688, -0.052354276180267334, 0.17086927592754364, -0.17650704085826874, 0.12947747111320496, -0.31428179144859314, -0.14369449019432068, -0.10809579491615295, 0.5964045524597168, 0.11903860419988632, 0.37893179059028625, 0.19619207084178925, -0.05808541551232338, 0.2731247544288635, -0.013829650357365608, 0.27308541536331177, 0.15985973179340363, -0.20613113045692444, -0.4237302541732788, 0.25677090883255005, -0.18577778339385986, 0.42376887798309326, -0.8425466418266296, -0.1631051003932953, -0.5029482245445251, 0.0517483688890934, 0.06912004947662354, 0.07387301325798035, 0.5629948377609253, 0.27511149644851685, -0.15060976147651672, 0.8245506882667542, -0.05666832625865936, 0.14268043637275696, 0.022100118920207024, 0.37349438667297363, -0.08815214037895203, 0.16562522947788239, 0.3091164529323578, 0.136989027261734, 0.08410024642944336, 0.20169201493263245, -0.2885999381542206, -0.35281580686569214, -0.5708215832710266, 0.37612685561180115, -0.25444328784942627, 0.4821946620941162, 0.28317251801490784, 0.3523370027542114,
  };
  static neuron_t neuron12 = {weights12, 0.15339882671833038};
  neuronas[12]=neuron12;
    
  static const float weights13[]={
    -0.156885027885437, 0.023886576294898987, -0.11364225298166275, 0.17069290578365326, 0.0029465840198099613, -0.19406139850616455, -0.05465400591492653, 0.17601001262664795, 0.014441536739468575, -0.043054644018411636, -0.16521723568439484, -0.0335051566362381, 0.030487874522805214, -0.1972617655992508, 0.2651837170124054, -0.11934487521648407, 0.25522640347480774, 0.07304134964942932, -0.06638900935649872, -0.10962194949388504, 0.016862541437149048, -0.10000964254140854, 0.11143609881401062, -0.1355639398097992, 0.18165487051010132, -0.14269956946372986, -0.13889744877815247, 0.1903415471315384, -0.26520904898643494, 0.058659687638282776, 0.026961615309119225, 0.17964953184127808, -0.04137240722775459, -0.12838095426559448, 0.1480673849582672, -0.19284404814243317, 0.19022305309772491, -0.09402003139257431, -0.10221388936042786, -0.16795764863491058, -0.01639728806912899, -0.14860615134239197, 0.03222750499844551, -0.10094363987445831, 0.2152615487575531, -0.09006401151418686, -0.1775299608707428, 0.1717413067817688, -0.04394014924764633, -0.03133473917841911, -0.19469687342643738, -0.17491719126701355, -0.18307995796203613, -0.16449587047100067, 0.04455745220184326, 0.15131588280200958, -0.11371893435716629, -0.13149450719356537, -0.13113531470298767, -0.190826416015625, 0.011770997196435928, 0.0024633710272610188, -0.19601723551750183, -0.04480982944369316, 0.1435958296060562, -0.0015673666493967175, 0.008703249506652355, -0.09597320109605789, -0.17675338685512543, -0.1561792939901352, -0.015385441482067108, -0.1606590896844864,
  };
  static neuron_t neuron13 = {weights13, 0.003906277474015951};
  neuronas[13]=neuron13;
    
  static const float weights14[]={
    0.22815044224262238, -0.1926073282957077, -0.5341807007789612, 0.19841904938220978, 0.30813539028167725, 0.32421302795410156, 0.16839712858200073, 0.12732158601284027, 0.3287696838378906, 0.24374955892562866, -0.15454648435115814, 0.32035544514656067, 0.1715407818555832, -0.18166251480579376, 0.30240440368652344, 0.5614813566207886, -0.06561225652694702, -0.34676823019981384, -0.045023996382951736, -0.23393939435482025, 0.09372358024120331, -0.6314302086830139, -0.12170485407114029, 0.20832201838493347, 0.04623826965689659, -0.1576918512582779, -0.19186924397945404, 0.26403069496154785, 0.27312394976615906, -0.32848402857780457, -0.13107621669769287, 0.36485305428504944, 0.22139230370521545, 0.30990466475486755, 0.10943463444709778, 0.14535824954509735, -0.20255184173583984, 0.07173282653093338, 0.03916347026824951, 0.44210511445999146, -1.113707184791565, 0.7434860467910767, -0.07597734779119492, -0.46284207701683044, -0.3468301594257355, -0.6734867095947266, -0.22621697187423706, 0.03723175823688507, -0.29942527413368225, 0.15952950716018677, 0.784436047077179, 0.43453601002693176, 0.14185082912445068, -0.10942012071609497, -0.3712582588195801, -0.01881244219839573, -0.030352702364325523, -0.07835374772548676, 0.4960167706012726, 0.32126468420028687, -0.3326400816440582, -0.2445259839296341, -0.14878401160240173, -0.12842953205108643, 0.030799396336078644, 0.36321350932121277, 0.5595127940177917, 0.31233903765678406, -0.3525031805038452, 0.10943470150232315, -0.09085331857204437, 0.06799310445785522,
  };
  static neuron_t neuron14 = {weights14, -0.1605723798274994};
  neuronas[14]=neuron14;
    
  static const float weights15[]={
    -0.21249882876873016, 0.6655195951461792, 0.04396052658557892, -0.26046180725097656, -0.3076951801776886, -0.29034480452537537, -0.16330818831920624, 0.5544682145118713, 0.2436024248600006, 0.02796005830168724, 0.0017665948253124952, 0.16526667773723602, 0.0551072396337986, 0.23760755360126495, -0.14381887018680573, -0.1275845170021057, 0.27591878175735474, 0.5512140393257141, -0.021559573709964752, 0.25744888186454773, -0.21514935791492462, 0.10176937282085419, -0.13693760335445404, 0.048671867698431015, -0.07763759046792984, 0.09311029314994812, -0.14497524499893188, 0.015932125970721245, 0.055568877607584, 0.19647479057312012, -0.32001492381095886, 0.43296757340431213, 0.35448431968688965, -0.1372072845697403, 0.49898478388786316, -0.08694589883089066, 0.36182066798210144, -0.2599892318248749, 0.12975390255451202, -0.42551112174987793, 0.4100756049156189, -0.3971591591835022, 0.4136424958705902, -0.21467623114585876, 0.3085770308971405, -0.17905937135219574, -0.17929498851299286, -0.06056421995162964, 0.20953591167926788, -0.31948161125183105, -0.02437146008014679, -0.14530566334724426, -0.31094878911972046, 0.2941071093082428, -0.074407197535038, -0.2363942712545395, 0.9657397270202637, 0.5594083070755005, 0.17753168940544128, 0.12502296268939972, 0.125969797372818, 0.424221932888031, 0.5556679368019104, -0.22967886924743652, -0.8699095845222473, 0.7127134799957275, -0.33389338850975037, -0.75980544090271, -0.28565719723701477, -0.931477427482605, -0.07431750744581223, -0.7080495357513428,
  };
  static neuron_t neuron15 = {weights15, 0.08645736426115036};
  neuronas[15]=neuron15;
    
  static const float weights16[]={
    0.07976499199867249, 0.09008947759866714, 0.04203861579298973, -0.234309583902359, 0.34261372685432434, 0.13058295845985413, 0.11907771229743958, 0.301950067281723, -0.5128048658370972, -0.38220325112342834, 0.40045854449272156, -0.45864781737327576, -0.3543722927570343, 0.6126731038093567, -0.12703125178813934, 0.40147554874420166, 0.5169363021850586, -0.7025375962257385, 0.3444059193134308, -0.27022477984428406, 0.3210463225841522, 0.14068125188350677, 0.28918400406837463, -0.37648510932922363, -0.18459610641002655, 0.4250277876853943, -0.46612560749053955, 0.33089905977249146, 0.694629430770874, -0.6019933819770813, 0.5008566379547119, 0.387969046831131, -0.24335893988609314, -0.6451890468597412, -0.005568917375057936, 0.011303221806883812, 0.14891654253005981, -0.21562758088111877, 0.06139840930700302, -0.003766588866710663, 0.4772835373878479, 0.47931697964668274, -0.06649436056613922, -0.20289242267608643, -0.027805984020233154, -0.14587439596652985, 0.10044954717159271, -0.0350954569876194, 0.2183036357164383, 0.06647185981273651, -0.07566473633050919, 0.17565755546092987, 0.3709050416946411, -0.41050368547439575, 0.09568333625793457, 0.3632996082305908, 0.5803106427192688, -0.5065106749534607, 0.02822272665798664, -0.2892107665538788, -0.21391166746616364, -0.10383900254964828, 0.31233105063438416, -0.2713184058666229, 0.12101344764232635, 0.09808908402919769, 0.07747374475002289, 0.08696677535772324, 0.1188400462269783, 0.3703102171421051, 0.24540752172470093, 0.10374090820550919,
  };
  static neuron_t neuron16 = {weights16, -0.34264349937438965};
  neuronas[16]=neuron16;
    
  static const float weights17[]={
    -0.2142339050769806, -0.5435376763343811, 0.007245281711220741, 0.5422316193580627, 0.10673301666975021, 0.38656288385391235, -0.08706121891736984, -0.04332362860441208, -0.2684125006198883, -0.47641974687576294, 0.10325424373149872, 0.09405066072940826, 0.2884930670261383, -0.047142721712589264, 0.06586024165153503, -0.14989876747131348, -0.6225706338882446, 0.08775410801172256, -0.07278486341238022, 0.4626784324645996, 0.05855004861950874, 0.021457627415657043, -0.4058760702610016, 0.34532272815704346, -0.24154795706272125, 0.04221831262111664, -0.1825946569442749, -0.06251966208219528, -0.09188676625490189, 0.2035199999809265, 0.026720421388745308, -0.27563512325286865, -0.35038912296295166, 0.10159191489219666, -0.0869317352771759, 0.13682228326797485, 0.47220394015312195, -0.43778979778289795, -0.4233607053756714, -0.12025388330221176, -0.003956282045692205, 0.0848962664604187, 0.3391920030117035, 0.09520220756530762, 0.01805434562265873, -0.27398574352264404, -0.2584865391254425, 0.31066346168518066, 0.1697068065404892, 0.3213483989238739, 0.2150205671787262, -0.024293040856719017, 0.3889336585998535, 0.12753789126873016, -0.2097107470035553, 0.4629240036010742, 0.016441697254776955, -0.19114620983600616, -0.04830661788582802, -0.0077172028832137585, -0.11217408627271652, 0.3482615351676941, -0.3613910973072052, 0.6525511741638184, -0.3708057701587677, 0.10568880289793015, -0.46061500906944275, 0.5144339799880981, -0.45104146003723145, 0.5629575252532959, -0.24616673588752747, 0.20524896681308746,
  };
  static neuron_t neuron17 = {weights17, 0.6555713415145874};
  neuronas[17]=neuron17;
    
  static const float weights18[]={
    -0.144880011677742, -0.22610531747341156, -0.2076364904642105, 0.5776094198226929, 0.30018946528434753, 0.005656248889863491, 0.10187168419361115, -0.35750553011894226, 0.09541355818510056, 0.36095935106277466, -0.17802131175994873, 0.9334025382995605, 0.3540504574775696, 0.002314006444066763, -0.20606045424938202, -0.07685157656669617, 0.13443996012210846, 0.06358570605516434, 0.2039545774459839, 0.10800015926361084, -0.21096694469451904, -0.20957954227924347, -0.31501150131225586, -0.368204802274704, -0.09023665636777878, 0.2783259451389313, -0.6024974584579468, 0.1150185614824295, 0.3874160945415497, -0.5203450918197632, 0.03284808248281479, 0.17831110954284668, 0.510903537273407, -0.14362496137619019, -0.2745288610458374, -0.09031055122613907, 0.5779411792755127, 0.3612216114997864, -0.23647384345531464, 0.2585470676422119, 0.4886407256126404, 0.044343505054712296, 0.029341422021389008, -0.6519774198532104, 0.04828466847538948, -0.26059332489967346, -0.23094768822193146, -0.043296363204717636, 0.3859337270259857, 0.005150941666215658, 0.32951441407203674, -0.18981307744979858, -0.13655823469161987, -0.2776264250278473, -0.20015817880630493, 0.5857880115509033, 0.30140742659568787, 0.7763214707374573, 0.11211897432804108, -0.2266407161951065, -0.15728247165679932, -0.5544981956481934, 0.0014698768500238657, 0.19077055156230927, 0.6329900026321411, 0.0033697825856506824, -0.9357972145080566, -0.8957858681678772, -0.3054099380970001, 0.03396318852901459, 0.16614313423633575, 0.632205069065094,
  };
  static neuron_t neuron18 = {weights18, 0.43539920449256897};
  neuronas[18]=neuron18;
    
  static const float weights19[]={
    0.09123998135328293, 0.19007420539855957, -0.5433269739151001, -0.0010083324741572142, -0.5170111656188965, -0.027750084176659584, 0.6239082217216492, -0.20429179072380066, -0.378808856010437, 0.14802785217761993, -0.0740782767534256, -0.06262389570474625, -0.6534799337387085, -0.04822324216365814, 0.012472059577703476, -0.036984883248806, -0.27889204025268555, -0.2335735410451889, -0.40061408281326294, -0.0343887060880661, -0.211205393075943, 0.4210195243358612, 0.20377951860427856, 0.613738477230072, 0.10368968546390533, -0.3314386308193207, 0.32413578033447266, 0.048572663217782974, -0.2400631606578827, -0.22420884668827057, 0.008242497220635414, -0.42528629302978516, -0.32853448390960693, -0.08161409944295883, -0.006103229243308306, -0.043469421565532684, -0.2724457085132599, -0.10172639042139053, 0.2191762924194336, 0.6256684064865112, -0.4188620448112488, -0.1938176304101944, -0.06876642256975174, -0.07948277145624161, -0.4177906811237335, 0.16243401169776917, 0.4082428514957428, 0.46316689252853394, -0.0050963652320206165, 0.22212836146354675, 0.442790150642395, 0.06038198247551918, 0.5440260767936707, -0.13024839758872986, 0.17917270958423615, -0.5271946787834167, 0.006080157123506069, 0.4011612832546234, 0.15998612344264984, 0.05775025114417076, 0.45814087986946106, -0.5951392650604248, 0.5395727157592773, -0.6218992471694946, 0.1492118388414383, 0.43151894211769104, 0.2950604259967804, 0.30074068903923035, 0.4752804934978485, -0.45815378427505493, 0.16661129891872406, -0.6917864680290222,
  };
  static neuron_t neuron19 = {weights19, -0.3594419062137604};
  neuronas[19]=neuron19;
    
  static const float weights20[]={
    -0.3044893443584442, 0.03367709368467331, -0.43758633732795715, 0.020128920674324036, -0.7278125882148743, 0.1258210688829422, -0.12642745673656464, -0.04506639763712883, -0.15944981575012207, 0.12288405746221542, -0.24081936478614807, 0.15725576877593994, -0.1338023543357849, -0.036532267928123474, -0.18125160038471222, -0.1392873227596283, -0.35518643260002136, 0.40811464190483093, 0.003065729746595025, 0.04149699956178665, -0.4970334768295288, 0.36152148246765137, 0.06797225028276443, 0.40522560477256775, -0.1384364813566208, 0.05846168473362923, 0.11117567867040634, 0.37766143679618835, 0.12137094140052795, -0.4031766653060913, 0.23306015133857727, 0.1717512309551239, -0.37261253595352173, 0.3103225827217102, -0.1747497320175171, 0.11066506057977676, -0.17070843279361725, -0.3540659546852112, 0.20571327209472656, 0.2586378753185272, -0.18699471652507782, 0.28820306062698364, 0.05788593739271164, -0.05543704703450203, -0.24677163362503052, 0.124934621155262, 0.2883087694644928, -0.21263927221298218, 0.10955094546079636, 0.3456989526748657, 0.17750491201877594, 0.306240051984787, 0.52497798204422, -0.33620375394821167, 0.29910507798194885, 0.09754380583763123, -0.3564442992210388, 0.07847930490970612, 0.3762916028499603, 0.05127925053238869, 0.19422248005867004, -0.20780913531780243, -0.16692614555358887, -0.30940303206443787, -0.25374454259872437, -0.6315146684646606, 0.5670409202575684, 0.12222868204116821, 0.33759188652038574, 0.29628410935401917, 0.11162476241588593, 0.09155268222093582,
  };
  static neuron_t neuron20 = {weights20, 0.1715698391199112};
  neuronas[20]=neuron20;
    
  static const float weights21[]={
    -0.25871792435646057, -0.07878956198692322, -0.13004997372627258, -0.12977375090122223, -0.05437607690691948, 0.1656550019979477, -0.025821581482887268, 0.1731378585100174, 0.002476824214681983, -0.06039969250559807, -0.2663916349411011, 0.15238094329833984, 0.14332735538482666, -0.24386335909366608, -0.0994875356554985, -0.12624670565128326, 0.038653843104839325, 0.07594384998083115, -0.11056560277938843, 0.11806091666221619, -0.03699412941932678, 0.09900493174791336, 0.005322146229445934, 0.05452972650527954, 0.16094739735126495, 0.04000715911388397, 0.08982117474079132, -0.02097010798752308, 0.1786935031414032, -0.22735393047332764, 0.11353890597820282, 0.030118748545646667, -0.1274777352809906, -0.042384929955005646, -0.21429681777954102, 0.05902710556983948, -0.23195791244506836, -0.054275866597890854, -0.25423192977905273, -0.17920805513858795, -0.018105505034327507, 0.08512629568576813, 0.06012910604476929, -0.17471472918987274, 0.10355468094348907, -0.15192855894565582, -0.23428849875926971, -0.19045273959636688, 0.012872778810560703, 0.13289587199687958, -0.10549428313970566, -0.22868762910366058, -0.07764802128076553, -0.18059448897838593, -0.1957544982433319, -0.18662400543689728, -0.0835271030664444, -0.11245895177125931, 0.0189137551933527, -0.22264771163463593, 0.08709226548671722, 0.13931423425674438, -0.03354796767234802, -0.22750966250896454, -0.1712447851896286, -0.29022637009620667, -0.26254528760910034, -0.10319532454013824, 0.03022904507815838, 0.1060672253370285, -0.16728927195072174, 0.06338587403297424,
  };
  static neuron_t neuron21 = {weights21, -0.055104080587625504};
  neuronas[21]=neuron21;
    
  static const float weights22[]={
    -0.0435018315911293, 0.21411600708961487, 0.2006826400756836, -0.04647967219352722, 0.16951493918895721, -0.06950661540031433, -0.046829041093587875, 0.4979323446750641, -0.5290648341178894, 0.14843641221523285, 0.2519991099834442, -0.12985725700855255, -0.37338903546333313, 0.3217657506465912, -0.22437211871147156, 0.07909749448299408, -0.6931160092353821, -0.3909030258655548, 0.7989779710769653, 0.38176149129867554, 0.24519853293895721, 0.2647612988948822, 0.36693236231803894, 0.24172468483448029, 0.15042084455490112, -0.03050045110285282, -0.2866578698158264, 0.3087235391139984, -0.5779619812965393, 0.47933536767959595, -0.4260494112968445, -0.43576690554618835, 0.09383263438940048, 0.14086855947971344, 0.2745714485645294, 0.056520093232393265, -0.396152138710022, 0.04494840279221535, -0.14285209774971008, -0.3451298177242279, -0.18137980997562408, 0.13143876194953918, 0.014441397041082382, 0.5834659934043884, 0.0777110680937767, -0.0770028755068779, 0.031651820987463, 0.019684458151459694, 0.050771862268447876, -0.018817568197846413, -0.13936538994312286, 0.05314278230071068, -0.4969303607940674, 0.20676234364509583, 0.7346744537353516, -0.4857449531555176, -0.2336891144514084, 0.0944596379995346, -0.046367015689611435, 0.06862299144268036, -0.1406956911087036, -0.30505073070526123, 0.11361922323703766, -0.30639731884002686, -0.5049118995666504, -0.12325303256511688, -0.16563470661640167, 0.08149190992116928, -0.02476559206843376, 0.08310271054506302, -0.09570491313934326, 0.537031888961792,
  };
  static neuron_t neuron22 = {weights22, -0.43710917234420776};
  neuronas[22]=neuron22;
    
  static const float weights23[]={
    0.2899298071861267, -0.67918860912323, 0.22962982952594757, 0.27518394589424133, 0.1117904782295227, 0.3960539996623993, 0.03252154216170311, -0.4643930196762085, 0.3479933738708496, -0.42104798555374146, 0.05308182165026665, 0.00465857470408082, -0.1814766377210617, -0.3006887435913086, 0.024564802646636963, -0.13382400572299957, -0.22217629849910736, 0.33370572328567505, -0.1535997986793518, 0.19084671139717102, -0.19414447247982025, -0.1394825130701065, -0.1402737945318222, -0.4103119969367981, 0.5057960152626038, -0.46180859208106995, -0.6219965815544128, 0.10723930597305298, -0.35740557312965393, 0.3743598759174347, 0.16659295558929443, -0.5963873267173767, -0.24194186925888062, 0.4772919714450836, -0.04564129188656807, 0.1567188948392868, -0.16454114019870758, -0.17386220395565033, -0.2982737123966217, -0.20639781653881073, -0.9196487665176392, 0.38135096430778503, 0.10263483971357346, 0.579186201095581, -0.27966734766960144, -0.6679502129554749, -0.0649503618478775, -0.0637006089091301, 0.0829082801938057, 0.07004359364509583, 0.18941770493984222, 0.32312360405921936, 0.05888548120856285, 0.26132386922836304, 0.44332143664360046, -0.25387856364250183, -0.16330339014530182, 0.17966830730438232, 0.3578822612762451, 0.008654776029288769, 0.1022324487566948, -0.008312572725117207, -0.12543436884880066, -0.06771083921194077, 0.32842642068862915, -0.21671660244464874, 0.3391449451446533, 0.05212553218007088, 0.35351648926734924, 0.33386650681495667, 0.15509723126888275, 0.5265340805053711,
  };
  static neuron_t neuron23 = {weights23, -0.2051180750131607};
  neuronas[23]=neuron23;
    
  static const float weights24[]={
    0.4778327941894531, -0.33469149470329285, 0.0271587111055851, 0.4027181565761566, 0.42329370975494385, 0.515930712223053, -0.6052588224411011, -0.3095807433128357, -0.7146722674369812, 0.8876392841339111, 0.3449466824531555, -0.016706792637705803, -0.7435916066169739, -0.45450738072395325, -0.39575839042663574, 0.5507813692092896, -0.9924172163009644, 0.568813681602478, -0.19724512100219727, -0.13977457582950592, -0.7540902495384216, -0.23167946934700012, 0.8817832469940186, 0.5666730403900146, 0.12013097107410431, -0.008380107581615448, -0.37060004472732544, 0.437303751707077, 0.35550516843795776, 0.3049898147583008, 0.1278212070465088, 0.08258388191461563, -0.8081150054931641, 0.1397804319858551, 0.10726271569728851, -0.005861068610101938, -0.2991999387741089, -0.4558458626270294, 0.18959097564220428, 0.36932405829429626, 0.0894157737493515, -0.2520311772823334, 0.07907192409038544, 0.16083209216594696, -0.16720762848854065, 0.301494836807251, 0.2987351417541504, -0.09517675638198853, -0.208272323012352, 0.1160578653216362, -0.3927170932292938, -0.2136751413345337, -0.020920347422361374, 0.3404655456542969, 0.10573505610227585, 0.17059263586997986, -0.13380025327205658, 0.18248169124126434, 0.1334754377603531, -0.2813520133495331, -0.15579365193843842, 0.1417027711868286, -0.22317470610141754, -0.0052978903986513615, -0.04622573032975197, 0.13149665296077728, -0.28269901871681213, -0.2546030879020691, -0.07850989699363708, 0.08499620109796524, -0.054187193512916565, -0.22601467370986938,
  };
  static neuron_t neuron24 = {weights24, -0.5476714372634888};
  neuronas[24]=neuron24;
    
  static const float weights25[]={
    0.5462717413902283, 0.06372316926717758, -0.30197757482528687, -0.9773555397987366, 0.09423568099737167, -0.5842834115028381, 0.20887917280197144, -0.20203474164009094, 0.22903499007225037, -0.7528672218322754, 0.34799638390541077, -0.27054092288017273, 0.4855005443096161, -0.012310088612139225, -1.0337920188903809, -0.38956373929977417, 0.47560590505599976, 0.7124078869819641, 0.5563623309135437, -0.24146263301372528, -0.01294829323887825, 0.24505414068698883, -0.6720085144042969, 0.47944438457489014, 0.3269987106323242, 0.11758303642272949, 0.3002292811870575, -0.08402296155691147, -0.1923147588968277, -0.03664546459913254, -0.5423932075500488, 0.04893358424305916, 0.058569177985191345, -0.3941076695919037, 0.26092633605003357, 0.24986515939235687, -0.0009935521520674229, 0.18768452107906342, -0.20994333922863007, 0.30053552985191345, 0.005245053209364414, 0.24507778882980347, -0.2514529824256897, -0.057970013469457626, 0.15439355373382568, 0.03458243981003761, 0.4854927957057953, -0.17449486255645752, 0.12085328996181488, 0.06141216307878494, 0.1514318734407425, -0.28494101762771606, -0.18826986849308014, 0.017833588644862175, -0.16471698880195618, 0.11363965272903442, -0.0455402210354805, -0.03975139558315277, 0.28623661398887634, -0.22247275710105896, -0.020232029259204865, 0.27780523896217346, -0.08139388263225555, -0.2507903575897217, 0.2113812416791916, 0.1963287740945816, 0.11906761676073074, -0.49127912521362305, 0.16075482964515686, 0.059551797807216644, 0.27111902832984924, 0.29771673679351807,
  };
  static neuron_t neuron25 = {weights25, -0.13330228626728058};
  neuronas[25]=neuron25;
    
  static const float weights26[]={
    -0.03312791883945465, -0.15179556608200073, 0.313357949256897, -0.6233084797859192, -0.019869189709424973, 0.3585651218891144, -0.6611190438270569, 0.9248950481414795, -0.14669154584407806, 0.7097330689430237, 0.06153363361954689, -0.3862857520580292, -0.538521409034729, 0.4057697653770447, 0.10898285359144211, 0.3572292625904083, 0.10654785484075546, 0.04553455486893654, -0.21933451294898987, -0.8306880593299866, -0.5656269788742065, 0.10679201781749725, 0.2676181197166443, 0.4734360873699188, -0.2023531198501587, -0.05547647923231125, -0.1341235637664795, 0.28265681862831116, -0.3201517164707184, 0.5789695382118225, -0.04818039759993553, 0.007811452262103558, 0.23714792728424072, -0.3179579973220825, -0.016152214258909225, -0.13240230083465576, 0.1602635234594345, 0.4261731505393982, 0.06253176927566528, -0.08198843151330948, 0.34360724687576294, 0.32686662673950195, -0.21332941949367523, -0.711819589138031, -0.0349222868680954, -0.2553720772266388, 0.6245912313461304, -0.25625765323638916, -0.0824994295835495, 0.502151370048523, -0.08220197260379791, -0.11585158109664917, 0.19524340331554413, -0.26676011085510254, 0.5065432190895081, -0.14600767195224762, -0.03211139515042305, -0.06203554943203926, -0.08876070380210876, -0.3856912851333618, -0.15328645706176758, 0.05021234229207039, -0.05121413618326187, 0.33769479393959045, 0.45906010270118713, 0.025293400511145592, 0.05862071365118027, -0.2768101990222931, 0.1522933542728424, -0.1031377762556076, 0.33837422728538513, -0.1336650252342224,
  };
  static neuron_t neuron26 = {weights26, 0.3347175419330597};
  neuronas[26]=neuron26;
    
  static const float weights27[]={
    -0.28869321942329407, 0.5224226117134094, 0.4540445804595947, -0.1804659068584442, -0.46857374906539917, -0.025367965921759605, 0.340724915266037, 0.2816460430622101, -0.9311151504516602, 0.7590807676315308, -0.10156625509262085, 0.09438612312078476, -0.7045022249221802, 0.2359548956155777, 0.262852281332016, -0.2628576159477234, -0.3534237742424011, -0.3038018047809601, 0.19770613312721252, 0.5049581527709961, -0.37738463282585144, 0.4039742350578308, 0.3529030680656433, -0.5248242020606995, -0.2921673655509949, -0.37511110305786133, 0.6446660161018372, 0.04648350179195404, -0.154807448387146, 0.021538125351071358, 0.19430848956108093, 0.19541434943675995, -0.2971703112125397, -0.07511477917432785, 0.3116174340248108, -0.30021145939826965, -0.06658904254436493, -0.42349061369895935, 0.3244982957839966, 0.0508047379553318, 0.6032809615135193, -0.6247926354408264, -0.025599904358386993, 0.06038974970579147, 0.059580590575933456, 0.05720281973481178, 0.15694402158260345, -0.5305457711219788, -0.6473544239997864, -0.4710335433483124, 0.642085075378418, 0.4808776378631592, 0.0315898098051548, 0.7609965205192566, -0.5331321954727173, -0.12238719314336777, -0.24956443905830383, 0.11036869883537292, -0.09172352403402328, 0.17701005935668945, 0.014012079685926437, 0.36544299125671387, -0.302084743976593, 0.33688852190971375, 0.0036076109390705824, -0.03306516259908676, -0.12325464189052582, 0.37452995777130127, 0.12789367139339447, 0.03974294662475586, 0.12345423549413681, 0.05345969274640083,
  };
  static neuron_t neuron27 = {weights27, -0.16568401455879211};
  neuronas[27]=neuron27;
    
  static const float weights28[]={
    0.03316700458526611, 0.225761279463768, -0.21605658531188965, -0.41227757930755615, -0.3405728042125702, 0.411704421043396, 0.22339288890361786, 0.03219577297568321, -0.15495435893535614, -0.015068810433149338, -0.3875313699245453, -0.110152468085289, -0.39327380061149597, 0.370531290769577, 0.2933567464351654, -0.2670639157295227, -0.19733645021915436, 0.5717260241508484, -0.19643963873386383, 0.1438084989786148, 0.4736914336681366, 0.212092325091362, -0.09059076011180878, 0.08525580167770386, -0.13520711660385132, 0.3130033314228058, -0.46627330780029297, -0.005292473826557398, -0.27290284633636475, -0.09740456193685532, 0.3801254332065582, 0.07025636732578278, -0.23659072816371918, 0.6005364656448364, -0.4918895959854126, 0.1391768902540207, -0.2031867802143097, 0.3373001217842102, -0.21870869398117065, -0.08022631704807281, -0.31255942583084106, 0.4325040876865387, -0.2255304753780365, 0.13400030136108398, 0.2856404781341553, -0.28135547041893005, 0.07995503395795822, -0.47455033659935, 0.3083265423774719, 0.672123908996582, -0.6875193119049072, -0.5908893346786499, -0.27640601992607117, 0.3541601598262787, -0.45917487144470215, -0.25585731863975525, -0.22447621822357178, 0.3979340195655823, -0.13243170082569122, -0.0024031135253608227, -0.0399053692817688, 0.13377538323402405, 0.7039648294448853, -0.3671390414237976, 0.5226145386695862, 0.12902776896953583, -0.2734469175338745, -0.001266642240807414, -0.007857288233935833, 0.5237244963645935, 0.1609773486852646, 0.20446321368217468,
  };
  static neuron_t neuron28 = {weights28, -0.34616410732269287};
  neuronas[28]=neuron28;
    
  static const float weights29[]={
    0.5530341863632202, 0.34612321853637695, -0.46630388498306274, -0.22797878086566925, -0.08677177131175995, -0.36160168051719666, 0.1880129873752594, -0.06307262182235718, 0.16806012392044067, 0.25774288177490234, -0.10771006345748901, 0.11747022718191147, 0.25027382373809814, -0.029629092663526535, 0.08246646821498871, -0.1328936219215393, 0.394878625869751, -0.8092676997184753, 0.036012209951877594, 0.38380715250968933, 0.626056969165802, 0.12321360409259796, 0.13943563401699066, 0.18735191226005554, 0.4461420178413391, 0.46089670062065125, -0.39697059988975525, -0.22127412259578705, -0.09129171818494797, 0.11209138482809067, 0.24813419580459595, -0.4614388942718506, 0.09219498932361603, 0.45669347047805786, -0.22143211960792542, -0.16371457278728485, 0.00571760069578886, 0.017563633620738983, 0.5748037695884705, -0.40293508768081665, 0.08853742480278015, 0.0817330852150917, -0.6597390174865723, -0.17461764812469482, -0.07212349027395248, 0.1895989179611206, 0.08586804568767548, 0.10919409245252609, 0.3021242618560791, 0.33559879660606384, 0.7668443918228149, -0.23582586646080017, 0.0803423598408699, 0.504255473613739, 0.0971350222826004, -0.521104633808136, 0.3786810636520386, 0.3324280381202698, -0.010820441879332066, -0.16993270814418793, 0.017808571457862854, -0.825664222240448, 0.22412018477916718, 0.1783110648393631, 0.10262692719697952, 0.08796313405036926, -0.1914220154285431, -0.23268920183181763, 0.06453397125005722, -0.5273680090904236, 0.5027977228164673, 0.19667954742908478,
  };
  static neuron_t neuron29 = {weights29, 0.4093155562877655};
  neuronas[29]=neuron29;
    
  static const float weights30[]={
    -0.1866365522146225, 0.017567846924066544, -0.5311546921730042, -0.36599481105804443, -0.6182548999786377, 0.18373224139213562, -0.2970060408115387, 0.7640103101730347, 0.05392827093601227, 0.44268208742141724, -0.1605743020772934, 0.1812964528799057, 0.313851535320282, -0.049173709005117416, -0.03219432756304741, 0.270557701587677, 0.0827205553650856, 0.3545897901058197, 0.13544556498527527, 0.017560862004756927, 0.4187745451927185, -0.2944193184375763, -0.3481143116950989, -0.21983803808689117, -0.13384099304676056, -0.17710725963115692, 0.2526003420352936, -0.09107278287410736, -0.018280889838933945, -0.1186094656586647, -0.6824506521224976, -0.12438743561506271, -0.4165223240852356, 0.1561797559261322, -0.05427946895360947, 0.09383668005466461, 0.15140195190906525, -0.26532498002052307, -0.6125099658966064, -0.4111402630805969, 0.9439184069633484, 0.23190414905548096, -0.20960736274719238, 0.454182505607605, 0.23745359480381012, 0.24862216413021088, -0.07219816744327545, -0.7405766248703003, 0.321730375289917, 0.05223424360156059, -0.156823068857193, -0.0841880664229393, -0.03793581575155258, -0.10757449269294739, -0.05393276363611221, 0.05634466931223869, -0.12988217175006866, 0.1406930387020111, 0.0010278730187565088, -0.011526750400662422, 0.09802968055009842, 0.4798029661178589, -0.4438674747943878, 0.6263308525085449, 0.3585089445114136, 0.39066022634506226, 0.07264465093612671, -0.09606286138296127, -0.27510401606559753, 0.574761688709259, 0.2609012722969055, -0.19430643320083618,
  };
  static neuron_t neuron30 = {weights30, -0.6925212740898132};
  neuronas[30]=neuron30;
    
  static const float weights31[]={
    0.011552929878234863, 0.006626698188483715, -0.0734788253903389, -0.019108247011899948, 0.40568995475769043, 0.18625973165035248, -0.19177667796611786, 0.6381608843803406, -0.16312208771705627, 0.1527082771062851, 0.12908050417900085, 0.38446736335754395, 0.42178651690483093, 0.22338883578777313, -0.5313843488693237, 0.643234133720398, 0.31456977128982544, 0.18072013556957245, 0.4382081627845764, -0.033322907984256744, 0.5685905814170837, -0.09227621555328369, -0.28914767503738403, 0.36728739738464355, -0.061898358166217804, -0.2853309214115143, -0.7203406095504761, -0.012891031801700592, -0.2595163583755493, -8.60335276229307e-05, 0.048059627413749695, 0.16523613035678864, -0.4475865364074707, -0.29871484637260437, -0.05824028700590134, -0.28978973627090454, -0.12328926473855972, -0.1654706597328186, 0.15200123190879822, 0.12757912278175354, -0.1051211804151535, -0.7293764352798462, -0.0663524642586708, 0.3489826023578644, 0.31708359718322754, -0.22662189602851868, -0.16249549388885498, 0.31193533539772034, -0.13369908928871155, 0.34230944514274597, 0.3212502598762512, -0.28840821981430054, -0.34982508420944214, 0.03080051764845848, -0.27101874351501465, -0.0030536174308508635, -0.7102022171020508, 0.0049204230308532715, -0.019656216725707054, 0.14561554789543152, -0.3370179235935211, -0.37087950110435486, 0.0863306075334549, 0.33713141083717346, -0.04158245399594307, -0.44569823145866394, -0.12818817794322968, 0.28604137897491455, 0.010266115888953209, 0.7224301099777222, 0.5148331522941589, -0.005957188084721565,
  };
  static neuron_t neuron31 = {weights31, 0.20710326731204987};
  neuronas[31]=neuron31;
    
  static const float weights32[]={
    -0.10680270940065384, 0.2019289880990982, 0.09360076487064362, 0.05896301940083504, 0.47195708751678467, 0.2800392806529999, -0.04450573772192001, 1.0956519842147827, 0.22719590365886688, -0.21358436346054077, 0.2831319570541382, -0.22150345146656036, -0.09248224645853043, 0.5259000062942505, 0.42145439982414246, -0.23788467049598694, 0.05379844084382057, -0.3923787772655487, -0.4209478497505188, -0.22188031673431396, -0.10922617465257645, 0.3344687223434448, 0.9797860383987427, 0.01882443018257618, -0.38410425186157227, -0.07975069433450699, 0.2009107619524002, -0.15257111191749573, 0.35826051235198975, 0.20775184035301208, 0.13327333331108093, 0.3483334481716156, -0.04034251347184181, 0.15404613316059113, 0.00044711088412441313, 0.38381028175354004, 0.145225390791893, 0.11574526131153107, 0.3666536509990692, 0.3084013760089874, -0.11587599664926529, 0.5554953813552856, -0.02485293336212635, 0.13926982879638672, 0.1703646034002304, 0.28935784101486206, -0.0564567930996418, 0.04490191489458084, 0.2992527186870575, -0.44205793738365173, -0.09212591499090195, -0.5823951363563538, 0.1447235345840454, 0.06718812882900238, -0.343470960855484, 0.042590897530317307, -0.34105604887008667, -0.015141203999519348, -0.0036604427732527256, -0.21415844559669495, -0.018073229119181633, -0.19883833825588226, 0.1472100466489792, 0.15510401129722595, 0.26618143916130066, 0.09798723459243774, -0.3974546492099762, -0.7911491394042969, 0.10464679449796677, -0.1558655947446823, -0.2596489191055298, -0.2953657805919647,
  };
  static neuron_t neuron32 = {weights32, 0.37066617608070374};
  neuronas[32]=neuron32;
    
  static const float weights33[]={
    0.24439360201358795, -0.017302880063652992, -0.014043728820979595, 0.041749775409698486, -0.10998807847499847, -0.12945343554019928, -0.138881117105484, -0.5118709206581116, -0.31698089838027954, -0.3582085072994232, 0.021798158064484596, -0.05239409580826759, 0.07665126025676727, -0.1404922902584076, -0.18989361822605133, -0.03694386035203934, 0.16365307569503784, 0.27253374457359314, -0.22031572461128235, 0.35560643672943115, 0.34148114919662476, 0.2672868072986603, -0.2854846119880676, 0.4484301209449768, 0.23087245225906372, 0.36264657974243164, 0.4087505042552948, 0.38940462470054626, 0.2168239802122116, 0.29388299584388733, 0.3896620273590088, -0.2775377631187439, 0.13134022057056427, 0.2073374092578888, -0.17277781665325165, 0.18037095665931702, -0.1638641506433487, 0.3758697509765625, -0.2186162918806076, -0.17783546447753906, -0.12261582911014557, -0.6490824222564697, 0.39741697907447815, 0.43426334857940674, 0.3802676200866699, 0.16425377130508423, 0.1290763020515442, -0.13928958773612976, -0.19012458622455597, 0.31773316860198975, -0.5948653817176819, -0.018669402226805687, 0.5082647800445557, -1.123211145401001, -0.037072621285915375, 0.16251716017723083, 0.49960726499557495, -0.054625894874334335, -0.3757704198360443, 0.13193349540233612, 0.7474193572998047, -0.34026622772216797, 0.0655881017446518, -0.21304824948310852, 0.6733976602554321, -0.5080515742301941, -0.03128822147846222, -0.1318885087966919, -0.275322824716568, -0.27220359444618225, 0.06734775006771088, -0.20743313431739807,
  };
  static neuron_t neuron33 = {weights33, 0.24934536218643188};
  neuronas[33]=neuron33;
    
  static const float weights34[]={
    0.3125779330730438, -0.006011947989463806, -0.1487651765346527, -0.057440292090177536, -0.15320028364658356, -0.22280511260032654, -0.11386851966381073, -0.1298903077840805, 0.42179977893829346, 0.054103851318359375, -0.017055828124284744, 0.01561047788709402, 0.10496822744607925, 0.060061536729335785, 0.2517235279083252, -0.4937703013420105, 0.2961338758468628, -0.5120702981948853, -0.7269149422645569, 0.042254723608493805, 0.27114543318748474, 0.5267202854156494, 0.4451832175254822, 0.10399681329727173, 0.23799669742584229, -0.2375566065311432, 0.3405020236968994, 0.30165430903434753, -0.18469829857349396, -0.18648405373096466, -0.14049141108989716, -0.5837814807891846, -0.03937900811433792, -0.009652750566601753, 0.36682114005088806, -0.1407782882452011, 0.01408377755433321, -0.6236462593078613, -0.03629789873957634, -0.5517730116844177, 0.47463396191596985, 0.6898526549339294, 0.5658197999000549, -0.08345703780651093, 0.1416778266429901, -0.633554220199585, 0.31428849697113037, -0.49242252111434937, -0.07827076315879822, -0.028046095743775368, 0.018265025690197945, 0.07064660638570786, -0.09375006705522537, 0.5852158069610596, -0.2885221838951111, 0.1593853235244751, 0.7496498823165894, -0.08842657506465912, -0.2475084811449051, 0.21860411763191223, -0.08303242921829224, 0.5929191708564758, -0.3860492706298828, -0.2656937837600708, 0.6272790431976318, 0.13315552473068237, 0.22817687690258026, -0.4443919360637665, -0.005621958523988724, 0.4110604226589203, -0.32329797744750977, -0.008385640569031239,
  };
  static neuron_t neuron34 = {weights34, -0.23310019075870514};
  neuronas[34]=neuron34;
    
  static const float weights35[]={
    -0.1598227322101593, 0.11710389703512192, 0.025294383987784386, 0.1424841731786728, -0.1427428275346756, 0.04703444987535477, 0.41069018840789795, 0.18931080400943756, -0.006235161330550909, -0.5393491387367249, -0.2578109800815582, -0.5514665842056274, -0.4469098448753357, 0.21607618033885956, -0.0973205417394638, -0.1503039449453354, 0.12205099314451218, 0.2302955687046051, -0.16226834058761597, 0.06611258536577225, -0.3003380596637726, 0.2442115992307663, 0.31991803646087646, 0.07705610245466232, 0.076597198843956, -0.24879664182662964, 0.1376323699951172, -0.19922403991222382, -0.12859949469566345, 0.21312782168388367, -0.0043692439794540405, 0.09986573457717896, 0.21222960948944092, -0.3311004638671875, 0.16669194400310516, -0.34586820006370544, -0.05229300260543823, 0.10253570228815079, 0.0347394160926342, -0.01579812727868557, -0.2970419228076935, 0.05868608132004738, 0.10147326439619064, 0.06172844022512436, -0.07917355000972748, -0.07347220182418823, -0.23601070046424866, 0.22580786049365997, 0.16855116188526154, -0.41678157448768616, 0.9186126589775085, 0.24122922122478485, 0.07610352337360382, 0.2275981903076172, 0.0690794363617897, -0.5558085441589355, 0.41778430342674255, -0.26021912693977356, -0.0006217040354385972, 0.1844795197248459, -0.13218145072460175, 0.17282935976982117, 0.5230768918991089, -0.30511224269866943, -0.7288569808006287, 0.40688326954841614, 0.3349820077419281, 0.6587420701980591, -0.03679639846086502, 0.25500988960266113, 0.7282813787460327, -0.3617163598537445,
  };
  static neuron_t neuron35 = {weights35, -0.49009114503860474};
  neuronas[35]=neuron35;
    
  static const float weights36[]={
    0.3294574022293091, 0.5678210854530334, 0.047995176166296005, 0.08602747321128845, 0.2621462345123291, 0.08816114068031311, -0.024449510499835014, -0.06377765536308289, 0.410904198884964, 0.15724188089370728, 0.03602171316742897, -0.443236768245697, -0.3038311302661896, 0.10055835545063019, 0.1603514403104782, 0.24062225222587585, 0.43484222888946533, 0.5559938549995422, -0.27335864305496216, -0.12023269385099411, -0.18511344492435455, 0.07400486618280411, 0.16387085616588593, 0.17701689898967743, 0.12831881642341614, 0.4327976405620575, -0.10357581824064255, -0.30906063318252563, 0.4614669680595398, -0.33106157183647156, -0.2519248127937317, -0.25899139046669006, -0.36755168437957764, -0.4889337718486786, -0.0007898516487330198, -0.21441347897052765, -0.10174458473920822, 0.15341909229755402, -0.04283244162797928, 0.13954316079616547, 0.3035993278026581, 0.4253850281238556, 0.06189565360546112, -0.07006948441267014, 0.44297388195991516, 0.4063110053539276, -0.4850260615348816, 0.14269393682479858, -0.12737677991390228, 0.22860966622829437, 0.09272885322570801, -0.0320613868534565, -0.1850200891494751, -0.21848903596401215, -0.04830608516931534, 0.2568078339099884, -0.16954822838306427, 0.09937740862369537, -0.12016940861940384, 0.01521011721342802, 0.2545906603336334, 0.19753298163414001, -0.19115573167800903, 0.03186970204114914, 0.18723057210445404, -0.7740827798843384, 0.002612360054627061, -0.4350431561470032, -0.1631382256746292, 0.7790145874023438, -0.402206689119339, 0.6904338598251343,
  };
  static neuron_t neuron36 = {weights36, -0.14630216360092163};
  neuronas[36]=neuron36;
    
  static const float weights37[]={
    0.18657717108726501, -0.10359927266836166, 0.1322813183069229, -0.2691959738731384, 0.07324467599391937, 0.03020494617521763, 0.048631541430950165, -0.19254983961582184, 0.03495155647397041, -0.11721272766590118, -0.18968063592910767, -0.2532753646373749, -0.1794937551021576, 0.19408689439296722, -0.060834236443042755, -0.181110218167305, 0.10265576839447021, -0.21334540843963623, -0.10859323292970657, 0.03615516796708107, -0.010314893908798695, -0.13627932965755463, 0.018463579937815666, 0.0023854465689510107, -0.2444366216659546, 0.12402617186307907, -0.05211639776825905, -0.20530465245246887, -0.033488865941762924, 0.04519163817167282, -0.0824718251824379, 0.12540729343891144, -0.069675512611866, -0.12160257250070572, -0.17266930639743805, 0.003788804402574897, -0.0024733685422688723, -0.22932180762290955, -0.20057550072669983, 0.20849913358688354, 0.04233194515109062, -0.001991250552237034, -0.09408476948738098, -0.22705243527889252, 0.17320342361927032, 0.17769260704517365, -0.23561157286167145, -0.20546521246433258, -0.23979203402996063, 0.1097894236445427, -0.16271929442882538, -0.050377536565065384, 0.0953328087925911, -0.23582470417022705, 0.10738830268383026, -0.2336345911026001, 0.1054610013961792, -0.031186899170279503, -0.10264279693365097, -0.23855775594711304, -0.2690035104751587, -0.05296333134174347, -0.14214058220386505, 0.1776876002550125, -0.13516823947429657, 0.05903949216008186, -0.22468391060829163, -0.15000180900096893, 0.08768662065267563, 0.15146353840827942, 0.051323212683200836, 0.07301225513219833,
  };
  static neuron_t neuron37 = {weights37, -0.026699692010879517};
  neuronas[37]=neuron37;
    
  static const float weights38[]={
    0.16754768788814545, -0.4499541223049164, 0.10169937461614609, 0.07303650677204132, 0.16741304099559784, 0.5781373977661133, 0.06265668570995331, -0.4846746027469635, 0.35809868574142456, 0.03104485757648945, 0.062195174396038055, 0.6314309239387512, 0.200866237282753, 0.19472479820251465, -0.6585788130760193, 0.08449258655309677, 0.4015248715877533, 0.4618223011493683, -0.11583597213029861, -0.5909526944160461, -0.280277281999588, -0.4637893736362457, -1.069018006324768, -0.2444271594285965, 0.6695944666862488, 0.01706274226307869, -0.39457932114601135, 0.17789381742477417, 0.46644318103790283, 0.2604585289955139, 0.6198704242706299, -0.6818618178367615, -0.06499899923801422, -0.15989144146442413, -0.11266819387674332, 0.4015939235687256, 0.12311810255050659, 0.21394696831703186, -0.03763836249709129, -0.08695875853300095, -0.3287750780582428, 0.40038514137268066, 0.2683893144130707, -0.5388211607933044, -0.1368480622768402, -0.08655699342489243, 0.04162507504224777, -0.1832280308008194, -0.056722912937402725, 0.5672449469566345, -0.3672918379306793, 0.26477691531181335, 0.07183405756950378, -0.29979610443115234, 0.40627583861351013, 0.09724250435829163, -0.2734090983867645, 0.05766184628009796, 0.19997109472751617, -0.14808808267116547, 0.24097926914691925, -0.5067574381828308, -0.06565305590629578, -0.27564147114753723, -0.2530529797077179, -0.206246018409729, 0.1624690443277359, -0.45773017406463623, -0.20780441164970398, -0.2028568834066391, 0.03321250528097153, -0.11896278709173203,
  };
  static neuron_t neuron38 = {weights38, 0.258596807718277};
  neuronas[38]=neuron38;
    
  static const float weights39[]={
    0.5004429817199707, -0.1701555699110031, 0.2939559817314148, 0.20043784379959106, 0.2781924307346344, -0.07119038701057434, -0.05044468119740486, -0.45888787508010864, -0.26533934473991394, 0.1598818600177765, -0.008602685295045376, 0.2039075642824173, -0.6825353503227234, 0.01774965226650238, 0.01870441436767578, -0.30952054262161255, -0.09811781346797943, -0.20534107089042664, -0.062160711735486984, 0.41449812054634094, -0.06306891143321991, 0.47440657019615173, -0.13415302336215973, 0.24779744446277618, 0.37905892729759216, 0.2547614574432373, 0.09153058379888535, 0.08597385138273239, 0.6329408884048462, 0.05974256247282028, -0.21594426035881042, -0.17515772581100464, -0.0656304657459259, 0.2529056668281555, 0.28902649879455566, -0.09769945591688156, 0.009857678785920143, -0.16168583929538727, 0.010498950257897377, -0.29919731616973877, 0.05477985739707947, -0.13822105526924133, 0.05035391449928284, -0.08297315984964371, 0.29045936465263367, 0.1532452553510666, -0.010016454383730888, 0.03478538244962692, 0.16904842853546143, -0.10923463106155396, -0.06877022236585617, -0.13767333328723907, 0.25275126099586487, 0.8993740081787109, 0.01866954378783703, -0.05956193804740906, 0.23086126148700714, 0.17082247138023376, 0.3631112575531006, 0.11395726352930069, -0.31434038281440735, -0.3967352509498596, 0.1129189282655716, -0.19213242828845978, -0.5263922214508057, 0.17789241671562195, -0.0750071182847023, -0.4444795548915863, -0.04133682698011398, -1.695090413093567, 0.2310115545988083, -0.40154698491096497,
  };
  static neuron_t neuron39 = {weights39, 0.45172742009162903};
  neuronas[39]=neuron39;
    
  dense_layer_t layer= {40, neuronas};
  return layer;
}

dense_layer_t init_dense_layer1(){
  // Cantidad de variables weights = numero de neuronas
  // Cantidad de pesos por weights = numero de entradas

  static neuron_t neuronas[36];
  
  static const float weights0[]={
    0.10118667781352997, -0.061037760227918625, 0.003395065199583769, -0.06109170243144035, -0.264342725276947, -0.4927780032157898, 0.13288229703903198, 0.21810001134872437, 0.17356207966804504, -0.18143689632415771, -0.028503388166427612, -0.13411709666252136, -0.3418627083301544, 0.007340426091104746, -0.3118995428085327, -0.5348966717720032, -0.34695175290107727, 0.04322672262787819, -0.9397132992744446, -0.4531947672367096, 0.10795048624277115, 0.1361394226551056, 0.29122063517570496, 0.26861339807510376, 0.27082765102386475, 0.14486782252788544, 0.2233743667602539, -0.4020392596721649, 0.5658445954322815, -0.6288213133811951, -0.5040507912635803, 0.2675788998603821, -0.24018771946430206, 0.22849780321121216, -0.3247222304344177, -0.22789110243320465, 0.1589067280292511, -0.11847950518131256, 0.050668634474277496, 0.034880682826042175,
  };
  static neuron_t neuron0 = {weights0, -0.1426728367805481};
  neuronas[0]=neuron0;
    
  static const float weights1[]={
    0.1080312430858612, -0.2306177318096161, -0.11213649809360504, -0.09407980740070343, 0.23718662559986115, -0.2919495403766632, -0.09610721468925476, 0.41770729422569275, 0.0064981477335095406, 0.2262701392173767, -0.004101849161088467, 0.3730195164680481, -0.41172289848327637, 0.21185614168643951, -0.14233453571796417, 0.12522384524345398, 0.15923747420310974, -0.32190075516700745, -0.14409296214580536, -0.2702900171279907, -0.5455742478370667, 0.011280820704996586, -0.738807201385498, -0.565731406211853, -0.20114463567733765, 0.2029189169406891, 0.41924721002578735, -0.38572728633880615, 0.12951746582984924, 0.4616004228591919, 0.16449815034866333, -0.19220757484436035, 0.2655447721481323, -0.04238709807395935, 0.11057452857494354, 0.4529675543308258, -0.20440194010734558, 0.044409506022930145, 0.05740547925233841, -0.11702678352594376,
  };
  static neuron_t neuron1 = {weights1, -0.4722135663032532};
  neuronas[1]=neuron1;
    
  static const float weights2[]={
    0.14107893407344818, -0.33884650468826294, -0.9393391013145447, -0.5938172340393066, 0.2728046476840973, 0.4737933278083801, -0.00653464812785387, 0.3783649802207947, -0.26833969354629517, -0.8438318967819214, 0.14890021085739136, -0.03925079107284546, -0.10992223024368286, -0.07074794918298721, 0.006284714210778475, 0.14544616639614105, 0.373430997133255, 0.5939239859580994, -0.6354506611824036, 0.22122344374656677, 0.10029079020023346, -0.20203176140785217, -0.2408027946949005, -0.5890722870826721, -0.33416062593460083, 0.04654965177178383, 0.33874037861824036, 0.1015075147151947, -0.2616531252861023, -0.06058114022016525, 0.3822301924228668, 0.37976041436195374, 0.5446972846984863, -0.05751025676727295, -0.25129103660583496, -0.211593896150589, -0.1597999930381775, 0.12514425814151764, -0.8866004943847656, 0.49054497480392456,
  };
  static neuron_t neuron2 = {weights2, -0.2572198212146759};
  neuronas[2]=neuron2;
    
  static const float weights3[]={
    -0.5822913646697998, -0.37523534893989563, -0.6143195033073425, -0.16129375994205475, -0.08367018401622772, 0.39029455184936523, 0.028399057686328888, -0.18945471942424774, -0.11350414156913757, -0.96830153465271, -0.20616444945335388, -0.6598649621009827, -0.3673640489578247, 0.1544693410396576, 0.2194027304649353, -0.00997741799801588, 0.3533710539340973, 0.08631817996501923, 0.030441056936979294, -0.10238700360059738, 0.2100558578968048, -0.10808426141738892, 0.012799935415387154, -0.04513862356543541, -0.4505484402179718, 0.1671159416437149, 0.1825779676437378, -0.12584084272384644, -0.4314322769641876, 0.728710412979126, 0.48695507645606995, 0.4978949725627899, 0.6890097856521606, 0.11924006789922714, -0.5644333362579346, -0.8463221192359924, 0.08005160093307495, -0.28002744913101196, -0.531240701675415, -0.383561909198761,
  };
  static neuron_t neuron3 = {weights3, -0.49553850293159485};
  neuronas[3]=neuron3;
    
  static const float weights4[]={
    0.10927785187959671, 0.5487045049667358, -0.028970656916499138, -0.18867897987365723, 0.147586852312088, 0.20185446739196777, 0.2521522641181946, -0.10839895159006119, 0.1644771844148636, 0.5490230917930603, 0.0372040718793869, -0.625221848487854, -0.4965987205505371, 0.02754540741443634, -0.3810221254825592, -0.9174360036849976, -0.03259590268135071, 0.23558132350444794, 0.5345861315727234, 0.7770105004310608, -0.0772334411740303, -0.14102357625961304, -0.18870539963245392, -0.04818033427000046, -0.49984708428382874, -0.5598061680793762, 0.3162386417388916, -0.0051089562475681305, 0.08494462817907333, -0.24349182844161987, -0.12853805720806122, -0.6465129852294922, 0.3665086328983307, 0.25803157687187195, 0.3821406066417694, -0.1579836905002594, -0.05483604222536087, 0.20486724376678467, 0.1691015660762787, -0.18743501603603363,
  };
  static neuron_t neuron4 = {weights4, -0.6932176947593689};
  neuronas[4]=neuron4;
    
  static const float weights5[]={
    0.2293086051940918, 0.6362133026123047, 0.07617675513029099, 0.28514933586120605, -0.17218346893787384, -0.06907590478658676, 0.2751118838787079, -0.4531680643558502, 0.08503464609384537, -0.33552074432373047, -0.25980088114738464, -0.23707056045532227, 0.20415498316287994, 0.13547998666763306, 0.44054898619651794, -0.30037352442741394, 0.16708701848983765, -0.3106970489025116, 0.2768538296222687, -0.5216035842895508, 0.03847089037299156, 0.19714480638504028, -0.7878296971321106, 0.0942017063498497, 0.42285236716270447, -0.07365833222866058, -0.12904056906700134, -0.24135738611221313, -0.24412062764167786, 0.3065970838069916, 0.06998099386692047, 0.0033578192815184593, -0.6895816922187805, -0.024555210024118423, -0.18457263708114624, -0.4092574417591095, 0.25760334730148315, -0.24493062496185303, 0.38881465792655945, -0.30982422828674316,
  };
  static neuron_t neuron5 = {weights5, -0.35933950543403625};
  neuronas[5]=neuron5;
    
  static const float weights6[]={
    -0.34152260422706604, 0.032167401164770126, 0.172749325633049, -0.527549147605896, -0.2129390835762024, -0.6074910759925842, 0.6434584856033325, -0.6530558466911316, 0.27700796723365784, -0.10265849530696869, 0.0064431605860590935, 0.12567336857318878, -0.005718765314668417, -0.07753527909517288, 0.2793757915496826, -0.11258090287446976, 0.26248884201049805, 0.24992536008358002, -1.8087857961654663, -0.2555457353591919, 0.13299784064292908, -0.15226471424102783, 0.1180364340543747, 0.1437891721725464, 0.3085539638996124, 0.2581194043159485, -0.26901739835739136, -0.18307501077651978, -0.07179132103919983, -0.037919774651527405, -0.3349299132823944, -0.3231241703033447, -0.8219584226608276, -0.8003575205802917, 0.5609312653541565, 0.13198736310005188, -0.19628983736038208, 0.0117182033136487, 0.36144790053367615, -0.11934671550989151,
  };
  static neuron_t neuron6 = {weights6, -0.11303486675024033};
  neuronas[6]=neuron6;
    
  static const float weights7[]={
    0.24124974012374878, 0.20858490467071533, -0.5626060366630554, -0.4987722635269165, 0.008936772122979164, -0.256818950176239, -0.471556693315506, 0.013032577931880951, -0.6915909051895142, 0.1341053545475006, -0.13823926448822021, -0.09148434549570084, -1.1395394802093506, -0.24164152145385742, 0.08539850264787674, 0.5958369970321655, 0.39729422330856323, 0.2628132104873657, -0.2381717413663864, 0.44597265124320984, -0.42253631353378296, -0.22379443049430847, 0.1321629285812378, -0.7226647138595581, -0.08861295878887177, 0.4523434340953827, 0.2756023406982422, -0.024746937677264214, 0.09753841906785965, -0.33086827397346497, 0.26241013407707214, 0.15144021809101105, 0.3424448072910309, 0.22153764963150024, 0.15505953133106232, -0.6532490849494934, 0.511539101600647, 0.17508023977279663, -0.2827692925930023, -0.7286936640739441,
  };
  static neuron_t neuron7 = {weights7, -0.5310471057891846};
  neuronas[7]=neuron7;
    
  static const float weights8[]={
    -0.9122157096862793, 0.26143428683280945, -0.7229447364807129, -0.2789452373981476, -0.023401964455842972, 0.3926151692867279, -0.6913365125656128, 0.3696770668029785, 0.38320085406303406, 0.023262212052941322, -0.2449462115764618, 0.43210047483444214, 0.2565804719924927, -0.24119038879871368, 0.5141919851303101, 0.17722024023532867, 0.5203425288200378, -0.43509361147880554, -0.5443052649497986, -0.728752613067627, 0.1636800318956375, -0.2046043872833252, 0.1515992134809494, -0.23560842871665955, 0.11687939614057541, -0.04205336794257164, -0.24684976041316986, 0.0306876040995121, -0.6597971320152283, -0.370076447725296, 0.32470211386680603, -0.10401733964681625, -0.7375947833061218, 0.04146035015583038, -0.5989372134208679, -0.4355858862400055, -0.21422065794467926, 0.25509604811668396, -0.03837205097079277, -0.21339504420757294,
  };
  static neuron_t neuron8 = {weights8, -0.7294020652770996};
  neuronas[8]=neuron8;
    
  static const float weights9[]={
    -0.6507373452186584, 0.5640487670898438, -0.05806122347712517, -0.20605896413326263, 0.21695369482040405, 0.42551085352897644, 0.04816959425806999, 0.05898206681013107, -0.24372833967208862, -0.11607077717781067, -0.18143519759178162, -0.49113351106643677, -0.35843342542648315, -0.04086998477578163, -0.5568643808364868, -0.3145544230937958, 0.38894644379615784, 0.11153796315193176, 1.0113178491592407, 0.073640838265419, 0.3744851052761078, -0.05587630346417427, -0.2997625172138214, 0.4183686077594757, 0.22300821542739868, -0.016376078128814697, 0.005985736846923828, 0.18409322202205658, -0.08342037349939346, 0.012797154486179352, -0.39263296127319336, 0.18674209713935852, -0.6511027216911316, 0.2022593468427658, -0.3699301779270172, -1.2018475532531738, -0.04052238166332245, -0.2740974426269531, 0.10494939982891083, -0.5802519917488098,
  };
  static neuron_t neuron9 = {weights9, -0.0795547366142273};
  neuronas[9]=neuron9;
    
  static const float weights10[]={
    -0.5945385098457336, -0.7045096158981323, -0.5429797172546387, 0.3703525960445404, 0.16160760819911957, 0.2546546161174774, -0.07543426007032394, 0.05546636879444122, 0.1516968309879303, 0.2956726849079132, -0.10125696659088135, 0.44179633259773254, 0.14938659965991974, -0.23750364780426025, -0.5466353297233582, -0.559903085231781, -0.6384912133216858, 0.324886679649353, -0.41951197385787964, 0.7374857664108276, -0.28210359811782837, 0.07509656250476837, -0.41506436467170715, 0.1523144245147705, 0.5430761575698853, 0.07405852526426315, 0.6861457824707031, 0.0990859717130661, -0.4459540843963623, -0.39162102341651917, -0.14337888360023499, -0.34706011414527893, -0.2204444408416748, -0.43331006169319153, 0.418315589427948, 0.12205690145492554, 0.16475440561771393, -0.027333656325936317, -0.9828563332557678, -0.09395597130060196,
  };
  static neuron_t neuron10 = {weights10, 0.018208084627985954};
  neuronas[10]=neuron10;
    
  static const float weights11[]={
    -0.6988866925239563, -0.9278854131698608, -0.7239144444465637, 0.23876291513442993, -0.2167922854423523, 0.06488864123821259, 0.014152388088405132, -0.6504855751991272, -0.15424856543540955, 0.017172759398818016, 0.149571493268013, 0.4220137596130371, -0.08516637980937958, -0.09229251742362976, 0.18304306268692017, 0.27187037467956543, -0.06313437968492508, -0.1920238733291626, -0.45301830768585205, -0.44534140825271606, 0.18999797105789185, -0.005400724243372679, 0.619433581829071, 0.28824543952941895, 0.1441320925951004, 0.06306769698858261, -0.07441436499357224, 0.34372133016586304, -0.5425126552581787, 0.13131187856197357, 0.09677375853061676, -0.028675174340605736, -0.4708382785320282, -0.3876802921295166, -0.5227757096290588, 0.03362589702010155, -0.27154508233070374, 0.06202787160873413, -0.37668484449386597, -0.06938757002353668,
  };
  static neuron_t neuron11 = {weights11, -0.22805766761302948};
  neuronas[11]=neuron11;
    
  static const float weights12[]={
    -0.1192343533039093, -0.5493773221969604, 0.44651269912719727, 0.2844043970108032, 0.2218296080827713, -0.5305379629135132, -0.20254339277744293, -0.33447110652923584, 0.12474250793457031, -0.2602834403514862, 0.03509918600320816, 0.049149833619594574, -0.7500219941139221, -0.05035841092467308, -0.05826156213879585, -0.13039632141590118, -0.25152480602264404, -0.12532301247119904, -0.4076751172542572, -0.2347179353237152, -0.14037075638771057, -0.11988173425197601, 0.2440558522939682, -0.23886531591415405, 0.1881941258907318, 0.688616156578064, 0.6070975661277771, -0.35245391726493835, 0.444970965385437, 0.005560300778597593, -0.42606040835380554, 0.31655219197273254, -0.30941465497016907, -0.14360320568084717, 0.08535817265510559, -0.033374398946762085, -0.4322444200515747, 0.14303714036941528, 0.40239495038986206, 0.4653995633125305,
  };
  static neuron_t neuron12 = {weights12, 0.8671393990516663};
  neuronas[12]=neuron12;
    
  static const float weights13[]={
    -0.01894986629486084, -0.22050152719020844, -0.35991284251213074, 0.19244031608104706, 0.11807535588741302, -0.5576120018959045, 0.10650788247585297, 0.1919785737991333, -0.9222226738929749, -0.07711506634950638, 0.23516027629375458, 0.22480249404907227, 0.14510919153690338, -0.19828179478645325, -0.020736290141940117, -0.12882941961288452, -0.46949052810668945, -0.14506030082702637, -0.7711321115493774, -0.22693674266338348, 0.3502415418624878, 0.2357749491930008, 0.15329407155513763, 0.2103719264268875, 0.05731990933418274, -0.08843765407800674, 0.023153947666287422, -0.1195981428027153, 0.3185160756111145, -0.4219919741153717, -0.3435681462287903, 0.10668034106492996, -0.1442665308713913, 0.4167502522468567, -0.8866824507713318, 0.4831400513648987, 0.3201427161693573, -0.2773163318634033, -0.2866033613681793, 0.02670661173760891,
  };
  static neuron_t neuron13 = {weights13, -0.5137692093849182};
  neuronas[13]=neuron13;
    
  static const float weights14[]={
    -0.5204141736030579, -0.7837748527526855, -0.5918041467666626, 0.18859373033046722, 0.005578098818659782, -0.32579413056373596, 0.10441063344478607, 0.09930911660194397, -0.2518836557865143, -0.5781046152114868, 0.13442069292068481, 0.47972434759140015, -0.039179228246212006, -0.2356252521276474, 0.5444175004959106, 0.2746421992778778, -0.41140055656433105, 0.10643380880355835, 0.3728786110877991, -0.6141234636306763, 0.02266293205320835, 0.21873237192630768, -0.20553119480609894, -0.13010253012180328, -0.15113604068756104, -0.18950647115707397, 0.4417271316051483, 0.0020580419804900885, -0.6628386974334717, -0.13921475410461426, 0.22496634721755981, -0.20541898906230927, -0.39046546816825867, -0.03338385745882988, -0.2131289839744568, -0.4974963665008545, -0.45079320669174194, -0.10016530007123947, 0.6413533687591553, 0.566667377948761,
  };
  static neuron_t neuron14 = {weights14, 0.8373661041259766};
  neuronas[14]=neuron14;
    
  static const float weights15[]={
    -0.6844430565834045, 0.09800194203853607, -0.7271168828010559, -0.14518310129642487, 0.03373280540108681, 0.07288184016942978, -0.9659559726715088, -0.5095670223236084, 0.23996491730213165, 0.07088886201381683, 0.16658803820610046, 0.3075726330280304, 0.431706964969635, -0.25291475653648376, 0.01601487584412098, 0.31554460525512695, -0.7486211657524109, -0.022402262315154076, 0.2933664321899414, 0.8300480246543884, 0.0800229012966156, 0.02154160849750042, -0.1206725686788559, -0.3254585266113281, 0.41625308990478516, 0.4121330976486206, -0.036894313991069794, -0.645713746547699, -0.41913968324661255, -0.15224824845790863, 0.16280926764011383, -0.6762963533401489, 0.22084839642047882, -0.24452045559883118, 0.3243768811225891, 0.07859690487384796, 0.09921825677156448, -0.1505891978740692, 0.28942903876304626, -0.1605326384305954,
  };
  static neuron_t neuron15 = {weights15, 0.0925966203212738};
  neuronas[15]=neuron15;
    
  static const float weights16[]={
    0.06487278640270233, -0.2669978737831116, -0.01020934246480465, -0.5262876152992249, -0.05851064249873161, 0.5843484401702881, 0.17003196477890015, -0.850809633731842, 0.00794259924441576, -0.24404481053352356, -0.03082948923110962, -0.007569723296910524, -0.32677653431892395, 0.05853262171149254, 0.2793908715248108, 0.2955813705921173, -0.5003796219825745, 0.12172914296388626, 0.49631911516189575, -0.2009638100862503, -0.24613474309444427, 0.19282059371471405, 0.23326905071735382, 0.47694525122642517, 0.2146497368812561, 0.20304378867149353, 0.12316837906837463, 0.13681143522262573, -0.15286476910114288, -0.4737778902053833, -0.6489804983139038, -0.39104002714157104, -0.3168022930622101, -0.02480771578848362, 0.08589362353086472, 0.22370629012584686, 0.22722430527210236, -0.14880181849002838, 0.1828569620847702, -0.4145568907260895,
  };
  static neuron_t neuron16 = {weights16, 0.03910072520375252};
  neuronas[16]=neuron16;
    
  static const float weights17[]={
    -0.14871659874916077, -0.6834233403205872, -0.03869574889540672, -0.28638824820518494, -0.14318273961544037, 0.2923320531845093, -0.1409183293581009, 0.4025047719478607, 0.1454339325428009, 0.5697993636131287, 0.018260659649968147, 0.1945732831954956, -0.0075005339458584785, 0.029919760301709175, -0.5681419372558594, -0.6507413983345032, -0.1872301995754242, 0.24420295655727386, -0.27672359347343445, 0.6921164393424988, -0.1235109493136406, 0.08326265960931778, 0.24277038872241974, -0.2802824079990387, -0.6722889542579651, -0.7968870997428894, -0.13948604464530945, 0.29075661301612854, 0.26658084988594055, -0.2787640392780304, -0.4955446422100067, -0.3803921639919281, -0.2205658107995987, -0.9219603538513184, 0.6850593686103821, -0.28767967224121094, 0.3375914692878723, -0.05489758774638176, -0.22268489003181458, 0.13393835723400116,
  };
  static neuron_t neuron17 = {weights17, 0.11455477029085159};
  neuronas[17]=neuron17;
    
  static const float weights18[]={
    0.5023265480995178, -0.40989676117897034, 0.6697572469711304, 0.14732390642166138, 0.14347225427627563, -0.4872438609600067, 0.04861326515674591, 0.2800609767436981, -0.5464573502540588, -0.2474011331796646, 0.027925854548811913, 0.17955344915390015, 0.1857457458972931, -0.1761334240436554, 0.17877699434757233, 0.31161215901374817, 0.18721924722194672, -0.40402746200561523, -0.07997316122055054, -0.09595213830471039, -0.30560657382011414, 0.1151781678199768, -0.635680615901947, -0.8488666415214539, -0.04988588020205498, 0.28419229388237, 0.4006135165691376, -0.6392676830291748, 0.043963249772787094, 0.18825362622737885, 0.16021037101745605, 0.08816051483154297, 0.0039244224317371845, 0.2127552330493927, 0.32919156551361084, 0.1426800638437271, -0.2092789113521576, 0.103981614112854, -0.015991173684597015, 0.012651770375669003,
  };
  static neuron_t neuron18 = {weights18, 0.058401890099048615};
  neuronas[18]=neuron18;
    
  static const float weights19[]={
    0.5116468667984009, 0.764194130897522, 0.005106234457343817, -0.13005605340003967, -0.2516620457172394, 0.06926928460597992, 0.01511763222515583, -0.09509481489658356, 0.11120095103979111, -0.5766510367393494, -0.3092995584011078, -0.38428831100463867, 0.12555140256881714, -0.2822674512863159, 0.0548921674489975, -0.0964941754937172, 0.20424722135066986, -0.6047576665878296, 0.4802723824977875, -0.23172986507415771, 0.09843117743730545, 0.19597895443439484, -0.052347488701343536, -0.830456018447876, -0.43217796087265015, 0.20508061349391937, 0.556484580039978, -0.19655509293079376, 0.2859325706958771, 0.2147558331489563, 0.14142699539661407, -0.0066719274036586285, -0.3103185296058655, 0.037870217114686966, 0.42306849360466003, -0.027710163965821266, 0.4131850302219391, -0.20975592732429504, -0.20510007441043854, -0.34353265166282654,
  };
  static neuron_t neuron19 = {weights19, 0.26025575399398804};
  neuronas[19]=neuron19;
    
  static const float weights20[]={
    -0.2758096754550934, -1.117141842842102, 0.21919699013233185, -0.06388366967439651, -0.09166578948497772, -0.10286975651979446, 0.2622546851634979, -0.023279212415218353, 0.29472237825393677, 0.40982452034950256, -0.05206514522433281, 0.5539366602897644, 0.4676364064216614, -0.2500839829444885, 0.17293134331703186, 0.33688777685165405, -0.03653472661972046, 0.43369820713996887, -0.6492976546287537, 0.44966188073158264, -0.7558122873306274, 0.02615887112915516, 0.13974004983901978, -0.40124133229255676, -0.30559709668159485, -0.813825786113739, -0.9884710907936096, -0.1770273596048355, -0.3926154673099518, -0.0458831824362278, 0.09041817486286163, -0.6676956415176392, -0.020429259166121483, -0.8918752074241638, 0.1529233157634735, 0.12959815561771393, -0.8318809866905212, -0.07298719137907028, 0.2960754930973053, 0.09903303533792496,
  };
  static neuron_t neuron20 = {weights20, 0.03857462480664253};
  neuronas[20]=neuron20;
    
  static const float weights21[]={
    0.05535760521888733, -0.6361314058303833, 0.4607195556163788, 0.10732245445251465, -0.1992945522069931, -0.38022100925445557, 0.003090677782893181, 0.2835821509361267, -0.427944540977478, 0.17880964279174805, 0.14171156287193298, 0.2986477017402649, -0.2758607566356659, 0.07228545099496841, 0.10667598247528076, 0.11731884628534317, -0.09014486521482468, 0.025728454813361168, -0.15709304809570312, 0.27784463763237, -0.5425331592559814, -0.06630780547857285, -0.759282648563385, -0.22268523275852203, -0.12535415589809418, 0.2699050307273865, 0.3805334270000458, -0.4047544598579407, 0.15175020694732666, 0.34887102246284485, -0.004548231139779091, -0.7183382511138916, 0.09793215245008469, -0.13263016939163208, -0.06955032050609589, 0.4368032217025757, 0.08282290399074554, -0.07082641124725342, 0.08668322116136551, 0.013904595747590065,
  };
  static neuron_t neuron21 = {weights21, 0.6401310563087463};
  neuronas[21]=neuron21;
    
  static const float weights22[]={
    -0.14634086191654205, -0.6609466671943665, -0.1301315724849701, 0.6164047122001648, 0.24593520164489746, -0.3550431728363037, 0.33323290944099426, -0.4564412832260132, -0.010990744456648827, -0.007615224923938513, -0.13763295114040375, 0.0604768767952919, 0.5827215909957886, -0.020966628566384315, -0.6107380986213684, -0.5951489210128784, -0.6770828366279602, 0.659629762172699, -0.39274120330810547, 0.3565034866333008, -0.6103099584579468, -0.19826675951480865, 0.13254038989543915, -0.3873501420021057, -0.21205253899097443, -0.9536717534065247, -0.4831240475177765, 0.5655493140220642, -0.21498480439186096, 0.497837632894516, -1.1775492429733276, 0.43623223900794983, 0.14479787647724152, -0.5146778225898743, 0.36009740829467773, 0.1387084722518921, 0.16819268465042114, -0.08875349909067154, -0.2733886241912842, -0.8320213556289673,
  };
  static neuron_t neuron22 = {weights22, 0.0630800798535347};
  neuronas[22]=neuron22;
    
  static const float weights23[]={
