#include "mnist_digits_model.h"

conv_layer_t conv_layer0; // Capa convolucional 1
dense_layer_t dense_layer0; // Capa densa 1
dense_layer_t dense_layer1; // Capa densa 2


conv_layer_t init_conv_layer0(void){

  static filter_t filtros[7];
  
  static const float weights0[]={
    -0.91307532787323, -0.6743795871734619, 0.17405244708061218, 
    -0.4086371660232544, -1.2503786087036133, 0.5578192472457886, 
    1.5711252689361572, 0.1461566686630249, 0.39533886313438416, 
  
  };
  static filter_t filter0 = {1, 3, weights0, 0.4438888728618622};
  filtros[0]=filter0;
    
  static const float weights1[]={
    1.1418447494506836, 0.3404163718223572, 0.3495429754257202, 
    0.8080100417137146, 0.8282198905944824, 0.26376014947891235, 
    0.4344036877155304, 1.264324426651001, 0.9974539875984192, 
  
  };
  static filter_t filter1 = {1, 3, weights1, 0.13729560375213623};
  filtros[1]=filter1;
    
  static const float weights2[]={
    0.27887624502182007, -0.1857859492301941, 0.9506992101669312, 
    0.33541038632392883, -0.913649320602417, 0.5195261240005493, 
    0.41168874502182007, -0.37165331840515137, 0.0713067501783371, 
  
  };
  static filter_t filter2 = {1, 3, weights2, -0.0008000704692676663};
  filtros[2]=filter2;
    
  static const float weights3[]={
    0.12341976165771484, 1.0065139532089233, 0.6040674448013306, 
    -0.27255648374557495, 0.02373066172003746, -0.144102543592453, 
    0.17891168594360352, -0.8793036341667175, -0.7597684860229492, 
  
  };
  static filter_t filter3 = {1, 3, weights3, 0.19354847073554993};
  filtros[3]=filter3;
    
  static const float weights4[]={
    0.7835376858711243, 0.9534871578216553, -0.5821003317832947, 
    1.0489931106567383, 0.263777494430542, 0.2655200958251953, 
    0.5256980657577515, -1.7428632974624634, -0.460970938205719, 
  
  };
  static filter_t filter4 = {1, 3, weights4, 0.3681582808494568};
  filtros[4]=filter4;
    
  static const float weights5[]={
    0.4391431510448456, 0.9805989861488342, 0.7109968066215515, 
    -0.391833633184433, -0.9206457734107971, -0.1887269914150238, 
    0.04069261625409126, -0.1351384073495865, 0.05634579434990883, 
  
  };
  static filter_t filter5 = {1, 3, weights5, 0.04488596320152283};
  filtros[5]=filter5;
    
  static const float weights6[]={
    -0.22373738884925842, -0.8211669921875, 1.1318178176879883, 
    0.10260619223117828, 1.3979454040527344, 4.144952981732786e-06, 
    0.35459068417549133, 1.092688798904419, 0.9826734662055969, 
  
  };
  static filter_t filter6 = {1, 3, weights6, 0.010428786277770996};
  filtros[6]=filter6;
    
  conv_layer_t layer = {7,filtros};
  return layer;
}
  
dense_layer_t init_dense_layer0(){
  // Cantidad de variables weights = numero de neuronas
  // Cantidad de pesos por weights = numero de entradas

  static neuron_t neuronas[16];
  
  static const float weights0[]={
    -0.23861853778362274, 0.47335928678512573, 0.2272566705942154, 0.9912015795707703, 0.5075464248657227, 0.9248102903366089, -0.053095586597919464, -0.7625592947006226, 0.4020848274230957, 0.16413594782352448, 0.7589364647865295, -0.3971002697944641, 0.9476255774497986, -0.363933265209198, 0.3843127489089966, 0.45179376006126404, 0.05550204962491989, 1.1010974645614624, 0.48537591099739075, 0.6879836320877075, 0.1925652027130127, 0.3303867280483246, -0.08198650926351547, -0.12167447060346603, 0.5500010848045349, -0.025225073099136353, -0.09113077819347382, 0.01201732736080885, 0.41296088695526123, -0.03171451762318611, 0.36752140522003174, 0.03256194293498993, -0.06478895992040634, 0.6119779944419861, -0.20254936814308167, 0.656951367855072, 0.05051231384277344, -0.38185518980026245, -0.3635987341403961, -0.49811264872550964, 0.2543390393257141, 0.2244410216808319, 0.16888225078582764, -0.07183364033699036, 0.3641337752342224, 0.23551641404628754, -0.6804822087287903, 1.041184663772583, 0.577355146408081, -0.037126991897821426, -0.2674611806869507, -0.19707711040973663, 0.509961724281311, -0.3507005572319031, 0.6206061244010925, 0.1448487788438797, 0.2992863357067108, -0.22450537979602814, 0.06344529986381531, 0.6914910674095154, 0.27812519669532776, 0.39043036103248596, 0.37200385332107544,
  };
  static neuron_t neuron0 = {weights0, 0.041096217930316925};
  neuronas[0]=neuron0;
    
  static const float weights1[]={
    0.4342169761657715, -0.1246173083782196, 0.2362285852432251, 0.5619812607765198, -0.5620291233062744, -0.006575098726898432, -0.1678713858127594, -0.3903771638870239, -0.33544591069221497, 0.15467189252376556, 0.4284047484397888, 0.09012755751609802, -0.11029606312513351, 0.029625076800584793, 0.9772019386291504, 0.00020126267918385565, -0.23041985929012299, -0.2673923373222351, -0.2217864692211151, 0.16718854010105133, 0.37928467988967896, -0.06519212573766708, 0.2860584259033203, 0.12006127834320068, 0.06817016005516052, 0.43842676281929016, -0.2054576277732849, 0.3569677472114563, -0.008037841878831387, -0.16685429215431213, 0.22721780836582184, -0.2638659179210663, 0.5565025806427002, -0.26631566882133484, 0.10093194246292114, 0.31179606914520264, 0.2551269233226776, -0.17509645223617554, 0.41214558482170105, -0.0033004432916641235, 0.4140121042728424, 0.6232542395591736, -0.16948555409908295, 0.4092899262905121, 0.06402336806058884, 0.2565203309059143, 0.5080283284187317, 0.3176625669002533, 0.028576016426086426, -0.295658141374588, -0.23489642143249512, -0.4757212996482849, 0.5839654803276062, 0.27629902958869934, -0.22080497443675995, 0.07388240098953247, -1.1058342456817627, -0.10080111026763916, 0.3524881601333618, 0.8324982523918152, 0.41535210609436035, 1.1089528799057007, -0.34480783343315125,
  };
  static neuron_t neuron1 = {weights1, 0.06941728293895721};
  neuronas[1]=neuron1;
    
  static const float weights2[]={
    -0.054592132568359375, -0.2058539092540741, 0.18196946382522583, 0.2262296974658966, 0.10068714618682861, 0.020262479782104492, 0.12445247173309326, -0.22969412803649902, -0.022312045097351074, -0.01983925700187683, 0.14659157395362854, -0.05484910309314728, 0.06184235215187073, -0.03252965211868286, -0.11804045736789703, -0.19583815336227417, -0.13218778371810913, 0.058409810066223145, -0.07460631430149078, -0.10727623105049133, 0.24237558245658875, -0.249394491314888, -0.1706913709640503, 0.14254331588745117, -0.14882324635982513, -0.04719434678554535, -0.2226291298866272, 0.12334662675857544, 0.059112608432769775, -0.20124861598014832, -0.27533137798309326, -0.16539210081100464, -0.06697632372379303, 0.03937557339668274, 0.11102992296218872, -0.15481197834014893, 0.03847822546958923, 0.1822778880596161, 0.07125899195671082, -0.1604786217212677, 0.11537712812423706, 0.18168246746063232, -0.18385949730873108, -0.26982682943344116, 0.1595519781112671, -0.2548360228538513, 0.08361908793449402, 0.025734692811965942, 0.16233593225479126, -0.02313178777694702, 0.008278101682662964, 0.1638210117816925, -0.20863312482833862, -0.17186829447746277, -0.02220514416694641, -0.1373933106660843, -0.1673191785812378, -0.022487610578536987, 0.23939314484596252, 0.17632398009300232, -0.2349117398262024, -0.23578648269176483, -0.27246740460395813,
  };
  static neuron_t neuron2 = {weights2, 0.0};
  neuronas[2]=neuron2;
    
  static const float weights3[]={
    -0.003966332413256168, 0.20950064063072205, 0.029358942061662674, -0.017414681613445282, -0.5563995838165283, -0.6199532747268677, 0.2613963186740875, -0.04385713115334511, -0.1946200579404831, 0.033670131117105484, 0.963742733001709, 0.5422520637512207, 0.2326880395412445, -0.2155146598815918, 0.7683079838752747, -0.5218686461448669, -0.6316691637039185, 1.2388073205947876, -0.567459225654602, 1.4714547395706177, -0.34313637018203735, 0.07877357304096222, 0.3009357452392578, -0.1864619255065918, -0.6188461184501648, -0.15310664474964142, 0.035866305232048035, 0.23923106491565704, -0.3444676995277405, 0.39630988240242004, 0.1740798056125641, -0.37310323119163513, 0.39860355854034424, -0.16633082926273346, -0.16112297773361206, 1.3662067651748657, 0.2700435221195221, -0.7363213896751404, 0.40430453419685364, -0.4971465766429901, 1.064314365386963, 0.5014957785606384, 0.29498347640037537, 0.19374406337738037, 0.592913806438446, 0.10359624028205872, 0.4658462405204773, -0.8255749344825745, 0.42081382870674133, -0.6751217246055603, 0.010529543273150921, 0.6664851307868958, 0.1190018281340599, 0.772972583770752, -0.19451387226581573, -0.39099612832069397, -0.07013777643442154, 0.12212249636650085, 0.5137768387794495, 0.603958010673523, 0.4137219786643982, -0.027569912374019623, -0.149554044008255,
  };
  static neuron_t neuron3 = {weights3, 0.019642788916826248};
  neuronas[3]=neuron3;
    
  static const float weights4[]={
    0.07454559206962585, -0.12592624127864838, -0.0946028083562851, -0.05042298138141632, 0.26421788334846497, -0.029573678970336914, -0.09144657850265503, -0.12200301885604858, -0.09636445343494415, 0.11482712626457214, -0.15157493948936462, -0.18859410285949707, -0.19165244698524475, -0.0322745144367218, -0.06962451338768005, -0.04486127197742462, -0.006704986095428467, 0.12879350781440735, 0.01055920124053955, 0.06774231791496277, 0.15787017345428467, -0.14883612096309662, 0.0349559485912323, 0.036643654108047485, 0.02719593048095703, 0.0731070339679718, 0.03785824775695801, -0.24554172158241272, 0.030096828937530518, -0.16800230741500854, -0.0919686108827591, -0.011742830276489258, 0.09649184346199036, -0.2627534866333008, 0.0712958574295044, -0.06380496919155121, -0.23306889832019806, -0.11770673096179962, 0.09303009510040283, -0.03356470167636871, 0.07603093981742859, -0.26330456137657166, -0.2444385290145874, -0.15091228485107422, -0.2338930368423462, -0.05049702525138855, 0.0650000274181366, -0.11635865271091461, 0.10496065020561218, -0.03355465829372406, 0.11075198650360107, -0.09799723327159882, 0.21915850043296814, 0.2155998945236206, -0.2497495710849762, 0.1988707184791565, -0.14713849127292633, -0.006540805101394653, -0.040569841861724854, 0.11394041776657104, 0.009933292865753174, 0.03294241428375244, -0.17111536860466003,
  };
  static neuron_t neuron4 = {weights4, 0.0};
  neuronas[4]=neuron4;
    
  static const float weights5[]={
    0.23033501207828522, -0.07293038815259933, -0.29263707995414734, -0.09579945355653763, 0.6021794080734253, -0.6681097745895386, -0.04817908629775047, 0.7451087236404419, -0.04679422453045845, -0.16336463391780853, -0.2563859224319458, -0.06422428786754608, -0.5904291868209839, 0.03442434221506119, -0.16290338337421417, -0.08679521083831787, -0.04671281576156616, -0.7687439918518066, -0.11392606049776077, -0.729381263256073, -0.06160122901201248, -0.3672027289867401, -0.13844884932041168, -0.3089280128479004, -0.13114449381828308, -0.44670185446739197, 0.00041729456279426813, 0.3855833113193512, -0.1109369769692421, 0.2795947790145874, -0.3472016453742981, 0.01508587971329689, 0.33200153708457947, -0.45759621262550354, 0.07918960601091385, -0.501909613609314, -0.3090187609195709, 0.0827673077583313, 0.5597428679466248, 0.4791163206100464, -0.011651798151433468, -0.027521368116140366, 0.28497886657714844, 0.11066177487373352, -0.18750610947608948, -0.1966145783662796, 0.4487759470939636, -1.0172141790390015, 0.04794076830148697, -0.587708055973053, 0.6953670978546143, 0.5503041744232178, -0.3049953579902649, 0.37477707862854004, -0.3851291239261627, 0.4093683362007141, 0.9324290752410889, 0.5575453639030457, -0.25950008630752563, -0.5201546549797058, -0.20978398621082306, -0.454598605632782, 0.602884829044342,
  };
  static neuron_t neuron5 = {weights5, -0.0008541393908672035};
  neuronas[5]=neuron5;
    
  static const float weights6[]={
    0.7496466040611267, -0.5156102180480957, -0.16560758650302887, -0.23165874183177948, 0.6703107953071594, -1.0598359107971191, -0.28939539194107056, 0.10742273926734924, 0.2897096872329712, -0.8128436803817749, 0.27570298314094543, 0.490400493144989, -0.7059398889541626, 0.10637806355953217, -0.3270476162433624, -0.35582876205444336, 0.08367964625358582, -0.676266610622406, -0.0839485228061676, -0.3125694990158081, -0.07198645919561386, -0.07171294093132019, 0.34849900007247925, 0.14984078705310822, 0.012240292504429817, 0.2942206859588623, -0.24573557078838348, 0.23693209886550903, 0.019376592710614204, 0.1843438446521759, 0.13060042262077332, 0.009356750175356865, 0.4199279546737671, 0.19037103652954102, -0.16278426349163055, -0.603816568851471, -0.122773177921772, 0.17504608631134033, 0.012981783598661423, -0.11988595873117447, -0.7121656537055969, 0.039278995245695114, 0.1598479300737381, 0.4511689841747284, -0.2235349416732788, -0.28997474908828735, 0.20050695538520813, 0.01444991771131754, -0.15760113298892975, -0.1451111137866974, 0.4218141436576843, -0.46922531723976135, -0.24235662817955017, -0.016917020082473755, -0.7751471400260925, 0.46841686964035034, -0.6207540035247803, 0.2874307632446289, 0.03537338227033615, -0.3559943735599518, 0.14291290938854218, 0.43896228075027466, 0.3826626241207123,
  };
  static neuron_t neuron6 = {weights6, 0.15339228510856628};
  neuronas[6]=neuron6;
    
  static const float weights7[]={
    0.003642138559371233, 0.2072061151266098, 0.14164519309997559, 0.37552133202552795, -0.35456714034080505, 0.6010648608207703, 0.16470648348331451, 0.12598301470279694, 0.0012264883844181895, 0.3741312325000763, -0.5422660112380981, -0.1929042786359787, 0.4557212293148041, -0.14954720437526703, -0.3453295826911926, 0.4275026321411133, 0.1469717025756836, -0.6580341458320618, 0.2596382200717926, -0.7917734980583191, 0.6382842063903809, 0.2845980226993561, 0.04600890353322029, 0.32461339235305786, -0.1559828817844391, 0.29717835783958435, -0.05900395289063454, 0.14639806747436523, 0.07634870707988739, 0.007240209728479385, -0.29456374049186707, 0.1419047713279724, 0.19016185402870178, -0.08233126252889633, 0.4596908688545227, -0.5306574106216431, 0.07412783801555634, 0.20847897231578827, -0.09504624456167221, 0.06264916062355042, 0.1135651096701622, 0.250813364982605, -0.0009236868936568499, -0.24016962945461273, 0.24230915307998657, 0.08506312221288681, -0.4229104816913605, 0.13349850475788116, -0.21290045976638794, 0.06763745099306107, -0.25154781341552734, 0.4266403019428253, 0.5763980150222778, 0.5345746874809265, 0.39809978008270264, -0.6552343964576721, 0.41056814789772034, -0.18058615922927856, 0.04363491013646126, 0.044664692133665085, -0.06398708373308182, 0.1831022948026657, -1.1349263191223145,
  };
  static neuron_t neuron7 = {weights7, 0.07046527415513992};
  neuronas[7]=neuron7;
    
  static const float weights8[]={
    0.44165921211242676, 0.10477279871702194, -0.0745694637298584, -0.7121239304542542, -0.16741888225078583, 0.25135183334350586, -0.11792664974927902, 0.3156915605068207, 0.5420610308647156, -0.33139660954475403, -0.4070289134979248, -0.34194445610046387, -0.5145059823989868, 0.5160729885101318, -0.8369752764701843, 0.15171556174755096, 0.38574206829071045, -0.177597314119339, -0.07159330695867538, -0.17838864028453827, -0.19679556787014008, -0.010832675732672215, -0.09553275257349014, 0.1716582477092743, -0.6848319172859192, -0.07128370553255081, -0.5465008020401001, 0.08837994933128357, -0.6462172269821167, 0.732321560382843, -0.4008689820766449, -0.1715039610862732, 0.2969825267791748, 0.40291061997413635, 0.3895338177680969, 0.34080129861831665, 0.5900778770446777, 0.08818982541561127, -0.61578768491745, 0.2814241051673889, -0.6056582927703857, 0.1589667797088623, -0.28302547335624695, -0.11663658171892166, 0.060280557721853256, 0.29723331332206726, -0.3465079367160797, 0.0981411561369896, -0.39342087507247925, 0.31540486216545105, 0.11044574528932571, 0.1546677052974701, -0.23167937994003296, -0.35143476724624634, 1.19940984249115, 0.04420546069741249, -0.03400935232639313, 0.4029958248138428, -0.04647962749004364, -1.1357816457748413, -0.2656496465206146, 0.09048192203044891, -0.5460101366043091,
  };
  static neuron_t neuron8 = {weights8, 0.16213972866535187};
  neuronas[8]=neuron8;
    
  static const float weights9[]={
    0.4301016628742218, 0.17917171120643616, 0.2566079795360565, -1.5354440212249756, -1.0088424682617188, -1.0774883031845093, 0.2904433310031891, 0.7392556667327881, -0.13361577689647675, -0.4530448615550995, -0.2751995623111725, 0.46509402990341187, -0.8012120127677917, 0.4790085554122925, 0.18781925737857819, -0.22339411079883575, 0.15804964303970337, -0.6968196630477905, -0.1973591297864914, -0.8454627394676208, 0.4206777513027191, -0.024138251319527626, 0.5387581586837769, 0.1926722526550293, -0.15386568009853363, -0.17338544130325317, 0.1798681914806366, 0.38826173543930054, 0.1608840823173523, 0.05350981280207634, 0.12199803441762924, 0.19526349008083344, 0.243101567029953, -0.07702728360891342, -0.07034951448440552, -0.8705741167068481, 0.1616627424955368, 0.6676805019378662, 0.13373474776744843, 0.38214316964149475, -0.25465303659439087, -0.02438735030591488, -0.08532794564962387, 0.46657368540763855, 0.33159932494163513, 0.1743653416633606, 0.7298749089241028, -0.6537275910377502, -0.6526049375534058, 0.511157751083374, 0.3561363220214844, 0.11589421331882477, -0.4902729392051697, 0.16463541984558105, -0.5722888708114624, 0.23246683180332184, -0.15523599088191986, 0.023090854287147522, 0.6436368227005005, -0.4767148494720459, -0.03908318653702736, -0.1856805384159088, -0.4262276291847229,
  };
  static neuron_t neuron9 = {weights9, 0.13183635473251343};
  neuronas[9]=neuron9;
    
  static const float weights10[]={
    -0.22311057150363922, -0.5916825532913208, -0.1695457249879837, 1.4768145084381104, 1.4809399843215942, 1.312574028968811, -0.38986629247665405, 0.16208507120609283, -0.207856222987175, 0.21815092861652374, -0.5064657926559448, -0.15847666561603546, 0.5126475691795349, 0.19024908542633057, -0.8973992466926575, 0.14077426493167877, 0.19251075387001038, -0.2672392725944519, 0.4565057158470154, -0.058235835283994675, 0.058243680745363235, 0.21611762046813965, -0.08090683072805405, -0.7036443948745728, 0.39165884256362915, -0.023825200274586678, 0.14764909446239471, 0.24364648759365082, -0.1780318319797516, -0.14492997527122498, -0.4535788893699646, -0.03423694893717766, 0.04873990640044212, -0.8446696996688843, 0.5695334672927856, 0.0262466948479414, 0.39847105741500854, 0.12144225090742111, 0.8414303064346313, 0.7992241382598877, -0.3646419942378998, -0.2730121612548828, 0.007498068269342184, -0.16053292155265808, -0.16036513447761536, -0.21542394161224365, 0.2841423451900482, -0.9089738130569458, -0.024225596338510513, -0.2522520422935486, 0.3193577527999878, 0.13151422142982483, 0.2863200306892395, 0.5413582921028137, -0.28929486870765686, 0.5397194027900696, -0.4278968870639801, 0.3565865755081177, -0.12777291238307953, 0.0670294538140297, 0.4417559504508972, 0.04966776445508003, 0.018663732334971428,
  };
  static neuron_t neuron10 = {weights10, 0.09170782566070557};
  neuronas[10]=neuron10;
    
  static const float weights11[]={
    -0.11701887100934982, 0.5266729593276978, 0.10736538469791412, -0.6469959616661072, -0.31298398971557617, 0.1511836051940918, 0.49360644817352295, 0.32855165004730225, 0.15657544136047363, 0.39240211248397827, 0.07713475078344345, -0.2751888930797577, 0.39040032029151917, 0.2111387401819229, -0.2193964570760727, 0.5035256743431091, 0.09143804013729095, 0.6614834666252136, 0.749441385269165, -0.30891039967536926, -0.07119520008563995, 0.4321056604385376, -0.06950797140598297, 0.5085556507110596, 0.17196057736873627, 0.23402823507785797, 0.291565865278244, -0.13669313490390778, 0.32562491297721863, -0.06989007443189621, -0.07982974499464035, 0.06744516640901566, -0.16760016977787018, 0.37241610884666443, 0.2779620289802551, -0.1464318335056305, -0.012072115205228329, 0.5613757967948914, -0.1553574651479721, -0.038287337869405746, -0.4012809693813324, -0.7394811511039734, 0.2397233247756958, 0.09623659402132034, 0.054586127400398254, 0.043329186737537384, -0.3803601562976837, 0.18101903796195984, 0.3340098261833191, 1.0656672716140747, 0.17296425998210907, 0.4954261779785156, -0.0621509812772274, -0.733575165271759, 0.8221016526222229, 0.31552544236183167, 0.651303768157959, 0.36325645446777344, 0.03781979903578758, 0.016771212220191956, -0.12261079251766205, -1.1559876203536987, 0.17333510518074036,
  };
  static neuron_t neuron11 = {weights11, 0.04752710089087486};
  neuronas[11]=neuron11;
    
  static const float weights12[]={
    -0.2731434106826782, -0.08412185311317444, 0.11303190141916275, 0.2573036849498749, 0.04021310433745384, -0.24380996823310852, 0.1272108107805252, 0.1781007945537567, -0.22789771854877472, 0.23046354949474335, 0.12631458044052124, 0.10853231698274612, 0.0583324134349823, -0.12384480983018875, 0.05420592054724693, -0.10040807723999023, 0.13346585631370544, 0.24376852810382843, 0.016739604994654655, -0.07154880464076996, -0.3214544355869293, 0.22819089889526367, -0.022147120907902718, -0.003521365113556385, -0.2538241147994995, -0.17211537063121796, 0.07240372896194458, 0.020584343001246452, 0.017387069761753082, -0.034404583275318146, 0.1476452499628067, -0.24976640939712524, 0.12630243599414825, 0.12707524001598358, -0.16431622207164764, -0.08127061277627945, -0.012184652499854565, 0.14732122421264648, -0.1264987289905548, -0.19422313570976257, 0.16485890746116638, -0.1138068363070488, -0.2507869303226471, -0.009439927525818348, -0.18532025814056396, -0.06403186172246933, -0.1430201679468155, -0.08816911280155182, 0.029615215957164764, 0.1748991310596466, -0.14400789141654968, -0.2721249759197235, -0.21686796844005585, 0.09978243708610535, -0.2740001082420349, -0.0816248282790184, 0.09944137185811996, 0.172413170337677, 0.15668226778507233, -0.24920153617858887, 0.12863187491893768, -0.27077922224998474, -0.00392419658601284,
  };
  static neuron_t neuron12 = {weights12, -0.036542512476444244};
  neuronas[12]=neuron12;
    
  static const float weights13[]={
    -0.4304671585559845, 0.35314080119132996, 0.24987627565860748, 0.039312828332185745, -0.11656813323497772, 0.042017076164484024, 0.173148050904274, 0.08575165271759033, 0.1783270388841629, 0.3930981159210205, -0.27661314606666565, 0.024494718760252, 0.08068260550498962, -0.5249444246292114, 1.2102268934249878, 0.26857802271842957, 0.13485026359558105, -0.14909683167934418, -0.19899457693099976, -0.4805084466934204, 0.6540716290473938, -0.0031863220501691103, 0.3216784596443176, 0.3010038733482361, 0.8057366609573364, 0.5433720946311951, 0.663201093673706, 0.009569101966917515, 0.6535788774490356, -0.1368868350982666, 0.5125895142555237, 0.8360408544540405, -0.28717562556266785, 0.29950597882270813, -0.5217719078063965, -1.0115041732788086, -0.027993472293019295, 0.14184032380580902, -0.04934704676270485, 0.30450305342674255, 0.6096886992454529, 0.16989150643348694, 0.37562453746795654, 0.2080828845500946, 0.21741673350334167, 0.18033556640148163, -0.11428159475326538, 0.9613510370254517, 0.04046974703669548, -0.24155494570732117, -0.2566048502922058, -0.4501536190509796, 0.6309984922409058, 0.513957679271698, -0.45940929651260376, 0.28511714935302734, 0.12140755355358124, -0.4949597120285034, -0.03169018775224686, 0.23154900968074799, -0.20964357256889343, 0.3207648992538452, -0.027594512328505516,
  };
  static neuron_t neuron13 = {weights13, 0.03238851949572563};
  neuronas[13]=neuron13;
    
  static const float weights14[]={
    -0.20008812844753265, -0.37346625328063965, -0.2284533977508545, 0.5715029239654541, 0.4437750577926636, 0.3061641752719879, -0.015589778311550617, 0.06987473368644714, -0.18161249160766602, 0.978866696357727, 0.2790221869945526, 0.08285532146692276, 0.28353846073150635, -0.40183284878730774, -0.27611154317855835, 0.7431439161300659, -0.00396528746932745, -0.7095220685005188, -0.07618624716997147, -0.9946644902229309, 0.1017485037446022, 0.2649763822555542, -0.20828299224376678, 0.16911570727825165, -0.348236620426178, -0.7373157143592834, -0.36901333928108215, 0.19739562273025513, 0.4460151791572571, -0.35470008850097656, 0.43248993158340454, -0.2302539050579071, 0.2812586724758148, -0.25643038749694824, 0.021868474781513214, 0.3956475555896759, -0.161197230219841, -0.07131149619817734, 0.40406742691993713, -0.21949563920497894, 0.8566411733627319, 0.18254885077476501, 0.4733971059322357, 0.4876537621021271, 0.7160599827766418, -0.6277266144752502, -0.2547226548194885, -0.5406145453453064, 0.05073337256908417, 0.20183075964450836, 0.22509579360485077, 0.49927419424057007, -0.5408287644386292, -0.007570613641291857, 0.3201124370098114, 0.03502621874213219, 0.8950925469398499, 0.3446342945098877, -0.31127411127090454, -0.0553060881793499, 0.07983797043561935, -0.1866038590669632, 0.7144385576248169,
  };
  static neuron_t neuron14 = {weights14, -0.022674981504678726};
  neuronas[14]=neuron14;
    
  static const float weights15[]={
    -0.06459012627601624, 0.021411584690213203, 0.17463546991348267, -0.34602195024490356, -0.6897379755973816, 0.23562227189540863, 0.23642605543136597, 0.12332388758659363, 0.013547759503126144, -0.2250974327325821, 0.3131602108478546, 0.036963142454624176, -0.582022488117218, -0.08953070640563965, 0.43344083428382874, -0.14560715854167938, -0.08585096895694733, 0.4903452694416046, 0.048750512301921844, -0.547170877456665, 0.5948070287704468, -0.49160414934158325, 0.38378793001174927, -0.13966026902198792, 0.4137503206729889, 0.6579208374023438, 0.08256258070468903, -0.5872576236724854, -0.3475457429885864, -0.18801265954971313, -0.3497758209705353, 0.8051884770393372, -0.7529504299163818, 0.5740975141525269, 0.3450736999511719, 0.6509132385253906, 0.26071783900260925, -0.7398609519004822, 0.36576610803604126, 0.1082504615187645, 0.5418505668640137, 0.2695981562137604, -0.34001424908638, 0.29894351959228516, -0.3259180784225464, 0.6959418058395386, 0.7214973568916321, 0.9388612508773804, 0.30888989567756653, 0.38411813974380493, -0.4082307517528534, 0.014080562628805637, 0.734837532043457, -0.44555988907814026, 1.3244153261184692, -0.10365871340036392, 0.5053669214248657, 0.027048524469137192, 0.061646342277526855, 0.1943996399641037, 0.32960137724876404, 0.12791725993156433, 0.011532498523592949,
  };
  static neuron_t neuron15 = {weights15, -0.07804325968027115};
  neuronas[15]=neuron15;
    
  dense_layer_t layer= {16, neuronas};
  return layer;
}

dense_layer_t init_dense_layer1(){
  // Cantidad de variables weights = numero de neuronas
  // Cantidad de pesos por weights = numero de entradas

  static neuron_t neuronas[10];
  
  static const float weights0[]={
    0.24351786077022552, 0.6067079901695251, -0.2644091248512268, -0.2115037888288498, 0.4662984609603882, -0.48641204833984375, 0.3453294336795807, -0.984871506690979, -1.5736478567123413, 0.31134262681007385, -0.8179048895835876, -0.2375764101743698, -0.06960031390190125, 0.5148471593856812, 0.8202217817306519, -0.5288359522819519,
  };
  static neuron_t neuron0 = {weights0, -0.07034853100776672};
  neuronas[0]=neuron0;
    
  static const float weights1[]={
    -0.86154705286026, -0.7403457164764404, -0.3859899044036865, -0.7778645157814026, -0.12294843792915344, 0.3936547636985779, 0.8990885615348816, 0.33391016721725464, 0.8531895875930786, 1.0525190830230713, 0.11032987385988235, 0.0026816537138074636, -0.23716068267822266, -1.0029133558273315, -0.554916501045227, -1.0525128841400146,
  };
  static neuron_t neuron1 = {weights1, 0.12330824136734009};
  neuronas[1]=neuron1;
    
  static const float weights2[]={
    0.029838016256690025, -0.960130512714386, 0.23417574167251587, -0.7694751024246216, 0.3144235610961914, 1.1176502704620361, 0.5638723969459534, -0.9773637056350708, -0.9542756676673889, -0.523684561252594, 0.8371903300285339, -0.2804862856864929, -0.05203350633382797, 0.4250258207321167, 0.37060636281967163, -0.8777147531509399,
  };
  static neuron_t neuron2 = {weights2, 0.025377383455634117};
  neuronas[2]=neuron2;
    
  static const float weights3[]={
    0.49853742122650146, -0.7230209112167358, 0.45682018995285034, -0.6997427344322205, 0.26158368587493896, -0.4859306216239929, -0.4721083343029022, -0.7908083200454712, 0.1765659749507904, -1.5401743650436401, 0.2719653248786926, 0.22432251274585724, 0.368681937456131, -1.1660876274108887, 0.28185349702835083, 0.7002882361412048,
  };
  static neuron_t neuron3 = {weights3, -0.014935976825654507};
  neuronas[3]=neuron3;
    
  static const float weights4[]={
    -0.9674157500267029, 0.7973297238349915, -0.24383024871349335, 0.33281776309013367, 0.2264384627342224, 0.16128499805927277, 0.6713283061981201, -0.04683144763112068, -0.22936584055423737, 0.7932261228561401, 0.0613241083920002, -1.0637274980545044, 0.08014167845249176, 0.059488944709300995, -1.3472254276275635, 0.9640358090400696,
  };
  static neuron_t neuron4 = {weights4, -0.07033081352710724};
  neuronas[4]=neuron4;
    
  static const float weights5[]={
    1.0304465293884277, -0.2335377335548401, 0.1303197741508484, 0.5103455185890198, -0.3467429280281067, -1.110567331314087, -0.24689608812332153, -1.6994470357894897, -0.3854372501373291, -0.4877440929412842, -0.9384264349937439, 0.0191399697214365, 0.23024702072143555, 0.5059893131256104, -1.3600999116897583, 0.18996012210845947,
  };
  static neuron_t neuron5 = {weights5, 0.16684086620807648};
  neuronas[5]=neuron5;
    
  static const float weights6[]={
    0.06878972053527832, -0.05165376141667366, 0.08015173673629761, 0.8842796683311462, 0.21941828727722168, 0.28001949191093445, 0.5147297382354736, -1.4565939903259277, 0.22879277169704437, -0.06961952894926071, -1.5273810625076294, -0.7350698113441467, 0.3147886097431183, -0.5793462991714478, 0.43332913517951965, 0.05748632550239563,
  };
  static neuron_t neuron6 = {weights6, -0.005854724440723658};
  neuronas[6]=neuron6;
    
  static const float weights7[]={
    0.2548479735851288, 0.7650331258773804, 0.4019086956977844, -0.33661577105522156, -0.45409831404685974, -0.8896368145942688, -1.1784169673919678, 0.9471064209938049, -0.0407184436917305, -0.5675458908081055, 0.5428403615951538, -0.662321925163269, 0.14434769749641418, 0.23546186089515686, -0.38543784618377686, -0.5913085341453552,
  };
  static neuron_t neuron7 = {weights7, -0.06631423532962799};
  neuronas[7]=neuron7;
    
  static const float weights8[]={
    -0.3358871340751648, -0.6691064834594727, 0.15389972925186157, 0.37289029359817505, -0.26399773359298706, 0.28037652373313904, -1.097010850906372, 0.22013750672340393, -0.1227935254573822, 0.302346795797348, 0.07003866881132126, 0.1445588916540146, 0.3198356032371521, -0.27098506689071655, 0.049145352095365524, -0.07862796634435654,
  };
  static neuron_t neuron8 = {weights8, -0.05825929716229439};
  neuronas[8]=neuron8;
    
  static const float weights9[]={
    0.2892802357673645, -0.5534423589706421, -0.40827417373657227, -1.4692950248718262, -0.4237595498561859, -0.6412013173103333, -0.8993977308273315, 0.5803778767585754, -0.04061221331357956, 0.040424998849630356, -0.977312445640564, 0.19043947756290436, -0.3761845827102661, 0.966259241104126, -0.2736154794692993, 0.7325679063796997,
  };
  static neuron_t neuron9 = {weights9, -0.023101354017853737};
  neuronas[9]=neuron9;
    
  dense_layer_t layer= {10, neuronas};
  return layer;
}

void model_init(){
    conv_layer0 = init_conv_layer0(); // Capa convolucional 1
    dense_layer0 = init_dense_layer0(); //Capa densa 1
    dense_layer1 = init_dense_layer1(); //Capa densa 2
}



int model_predict(data_t input, flatten_data_t * results){
    data_t output;
    flatten_data_t f_input;

    // Input
    #if PRINT_RESULTS==1
        Serial.println("Datos de entrada: ");
        print_data_t(input);
    #endif
  
  // Capa 1: Conv 2D
    conv2d_layer(conv_layer0,input,&output);    // Aplicar la convoluci贸n  de la capa
    #if PRINT_RESULTS == 1
        Serial.println("Matriz output capa 1 (Conv 2D): ");
        print_data_t(output);
    #endif
    relu(output);                           // Activaci贸n Capa ?: relu
    #if PRINT_RESULTS == 1
        Serial.println("Activacion capa 1 (Relu): ");
        print_data_t(output);
    #endif
  //free(input.data);
  input=output;
  
  // Capa 2: MaxPooling2D
  max_pooling_2d(2,input,&output);
    #if PRINT_RESULTS == 1
      Serial.println("Matriz output capa 2 (MaxPooling 2D): ");
      print_data_t(output);
    #endif
  //free(input.data);
  input=output;
  
  // Capa 3: Flatten
    flatten_data_t f_output;
    flatten_layer(output, &f_output);
    #if PRINT_RESULTS == 1
        Serial.println("Vector output capa 3 (Flatten): ");
        print_flatten_data_t(f_output); 
    #endif
    //free(output.data);
    f_input=f_output;
  // Capa 4: Dense
    dense_forward(dense_layer0,f_input,&f_output);
    #if PRINT_RESULTS == 1
        Serial.println("Vector output capa 4 (Dense): ");
        print_flatten_data_t(f_output);
    #endif
    //free(f_input.data);
  
    //Activaci贸n Capa 4: relu
    relu_flatten(f_output);
    #if PRINT_RESULTS == 1
        Serial.println("Activacion capa 4 (Relu): ");
        print_flatten_data_t(f_output);
    #endif
    f_input = f_output;
    
  // Capa 5: Dense
    dense_forward(dense_layer1,f_input,&f_output);
    #if PRINT_RESULTS == 1
        Serial.println("Vector output capa 5 (Dense): ");
        print_flatten_data_t(f_output);
    #endif
    //free(f_input.data);
  
    //Activaci贸n Capa 5: softmax
    softmax(f_output);
    #if PRINT_RESULTS == 1
        Serial.println("Activacion capa 5 (Softmax): ");
        print_flatten_data_t(f_output);
    #endif
    
  int result= argmax(f_output);
  *results = f_output;
  return result;
}
  